//
// Generated by hls_exporter.py at 04.06.2024, 18:12:50
// 
// AUTO-GENERATED FILE. DO NOT MODIFY.
//

#ifndef WALKER_RELU_TANH_CONFIG_H
#define WALKER_RELU_TANH_CONFIG_H

#include <cstddef>
#include <cstdint>

typedef float modelData_t;

//
// Layer: signal
//
static const size_t SIGNAL_INPUTLAYER_SIZE = 17;

//
// Layer: time
//
static const size_t TIME_INPUTLAYER_SIZE = 1;

//
// Layer: ltc
//
static const size_t LTC_UNITS = 64;
static modelData_t LTC_STATES[64] = { 0.0, 0.0, 0.0, 0.0, 0.0, 0.0, 0.0, 0.0, 0.0, 0.0, 0.0, 0.0, 0.0, 0.0, 0.0, 0.0, 0.0, 0.0, 0.0, 0.0, 0.0, 0.0, 0.0, 0.0, 0.0, 0.0, 0.0, 0.0, 0.0, 0.0, 0.0, 0.0, 0.0, 0.0, 0.0, 0.0, 0.0, 0.0, 0.0, 0.0, 0.0, 0.0, 0.0, 0.0, 0.0, 0.0, 0.0, 0.0, 0.0, 0.0, 0.0, 0.0, 0.0, 0.0, 0.0, 0.0, 0.0, 0.0, 0.0, 0.0, 0.0, 0.0, 0.0, 0.0 };
static const size_t LTC_BACKBONE_0_UNITS = 256;
static const modelData_t LTC_BACKBONE_0_SIGNALWEIGHTS[4352] = {
-0.19235933, -0.44511697, 0.086083, 0.6232758, -0.25195897, 0.94705015, -0.009594325, -0.43218073, -0.425885, -0.3135787, -0.081579946, 0.33625174, 0.13452984, -0.010074479, 0.22690278, 0.08300785, 0.15801711 ,
-0.4826697, -0.61138564, 0.42030954, 0.19367826, -0.24838987, -0.14736685, 0.03400949, 0.3913658, -0.3296606, -0.003918797, 0.42130464, 0.15092868, 0.069203876, 0.07913542, -0.47182608, -0.29703957, 0.13794564 ,
-0.55381685, -0.46670377, 0.426038, -0.10740127, 0.20573741, 0.06806035, 0.34169242, -0.37293476, -0.502487, 0.019356064, 0.11766082, 0.008758595, -0.38477927, 0.09370051, -0.020079602, -0.17693523, -0.2848922 ,
-0.2662776, 0.20139861, 0.3378222, -0.26594085, 0.07674276, -1.5698744, 0.49796832, -1.6229652, -0.06753506, -0.39479104, -0.21571864, -0.00635479, 0.21491134, -0.081089415, 0.28461793, 0.040529516, 0.08429975 ,
-0.70434695, -0.30068114, 0.22225767, 1.5911641, -0.12358414, 0.39467978, -0.14917004, 0.33103037, 0.15389472, 0.29270035, 0.56030554, -0.09611816, -0.106663644, -0.014487617, -0.27704534, 0.04200814, -0.16815074 ,
-0.44580272, -0.51233464, 0.08764487, -0.10061473, -0.61076486, 0.10717103, 0.44412166, 0.11049277, -0.63494956, -0.4578041, 0.065946214, -0.1772245, 0.011327898, 0.32216465, -0.13991053, -0.29386684, 0.010517059 ,
-0.12022684, 0.15668885, 0.1117034, 0.09100934, 0.018069383, 9.453605, -0.15400101, 0.0046615866, 0.1157492, 0.008157451, -0.032531638, -0.014314303, -0.005435976, -0.000106572086, 0.058460154, 0.014024309, 0.0030848244 ,
0.088784285, 0.24883728, 0.10372236, 3.3448179, 0.18549228, -0.20563976, -0.18471926, -0.12497403, -0.44109848, -0.19531843, 0.2871838, -0.09969208, -0.13302125, 0.19433376, -0.23865014, -0.21026693, -0.14133304 ,
-0.42639476, -0.9716266, 0.68504345, 0.054583527, -0.0006152671, 1.4163247, 0.46387485, -0.46094355, -0.41419253, -0.44077894, 0.20320262, -0.20873018, -0.0010804706, 0.12791468, -0.16297798, -0.43704444, 0.18679637 ,
-0.6728393, 0.575178, 0.19117801, -0.12425863, -0.35916406, 0.6721254, -0.5069432, 0.1041216, 0.3216552, 0.36608303, 0.12901914, -0.11508287, -0.20189793, 0.062896036, -0.14665902, 0.074827544, -0.20539393 ,
-0.18698548, -0.89037526, 0.48632544, 0.2900308, 2.6946099, -0.04812661, 0.29501873, -0.08173073, -0.21929671, 0.16340464, -0.09381498, 0.06566741, 0.021794546, 0.008171157, 0.026445443, 0.05627785, 0.00920702 ,
-0.5333578, 1.117625, 0.0074075907, 0.4062628, 0.17717882, -0.05504872, -0.41695827, -0.106758855, 0.048927095, -0.16679084, 0.02370199, 0.13286006, -0.31566957, -0.19993018, -0.016222425, -0.23584546, -0.11106098 ,
-0.24467456, -0.14899881, 0.3183456, 0.18239485, 2.1918838, 1.9797474, -0.33960918, 0.122493155, -0.34645215, 0.037809514, 0.20456295, -0.090458445, -0.032800876, 0.018267166, -0.032568567, -0.030182103, 0.0020460612 ,
-0.24565424, 0.70816976, 0.54549634, -0.81969625, 0.020030778, 2.3060243, -0.54542184, 0.060515318, -0.22576235, 0.08035803, 0.501573, 0.041013792, 0.12009359, 0.045580372, -0.41868123, -0.06752461, -0.07360875 ,
0.056785528, -0.82818377, 0.22489728, 1.717836, -0.62300056, 0.51282585, -0.19172454, -0.45673296, -0.6702115, -0.019656762, -0.25030178, 0.18006127, -0.14725491, -0.29560214, -0.07647207, 0.1324853, 0.083715215 ,
-0.1882635, 0.1681733, 0.05474855, 10.106398, 0.067714095, -0.02010067, -0.15738934, 0.046186578, 0.17603019, 0.05212818, -0.025008557, 0.017632265, 0.04200419, 0.007652186, -0.007554514, -0.012340273, -0.003675256 ,
-0.4533592, -0.11733373, -0.32644582, 0.12948567, -0.35881436, -0.9699296, 0.24503879, 0.08970654, -0.15825589, -0.30429757, 0.22026181, -0.26346213, 0.08757792, 0.09615071, -0.26793122, -0.08276364, 0.20378712 ,
-0.6613009, -0.04182124, 0.64000493, 0.5152785, -0.30178034, 1.1517793, 0.2601669, -0.46762615, -0.8533933, -0.23383164, -0.53131294, -0.12192356, -0.22831024, -0.22546369, -0.12869783, -0.4630752, 0.01574326 ,
-0.9190067, -1.9756484, -0.21027125, 0.21470651, -0.20382239, 1.4327737, 0.5302558, 0.6947052, -0.7844921, -0.28985208, 0.17877874, -0.09052715, -0.22834753, 0.14064518, -0.1932391, -0.34178537, 0.2532078 ,
-0.54393715, -0.7404341, -0.43844825, -0.6065753, -0.30301595, 1.172051, 0.98344624, 0.15239652, 0.033432383, -0.29436526, -0.10947312, 0.26071078, -0.070846476, -0.19881509, -0.38904664, -0.19751015, 0.15749103 ,
-0.15632941, -0.4879517, -0.28122997, 1.5188562, 0.1326196, -1.424938, 0.25340307, -0.074213, -0.06323687, -0.054058254, 0.011741868, -0.21828459, -0.05293213, -0.05186565, -0.14238806, 0.028654793, -0.0022871261 ,
0.036491487, 0.39848152, 0.09032227, 0.4574971, -0.34788203, 0.08932769, 0.7059298, 0.016424838, -0.46107322, 0.1498785, -0.16897318, 0.42966208, 0.45655409, 0.12975924, 0.1517055, -0.0066055, 0.019473378 ,
0.40026626, -0.6876467, 0.42166921, 2.9158325, 0.09984717, 0.93467355, -0.8203381, -0.33043247, -0.4960945, -0.015951939, -0.028024197, 0.06246485, 0.09716281, 0.014484696, -0.06961796, 0.020904165, -0.15918761 ,
-0.19342312, -0.099207416, 1.4814728, 0.11736526, -0.15857221, 5.718902, -0.37580788, 0.22199629, 0.17058028, -0.09107245, 0.15815368, 0.07268618, -0.021862416, 0.056538716, -0.062087987, 0.13199414, -0.02165374 ,
0.8223408, -0.021274447, 1.1585768, 0.19543909, -0.08581907, 4.159561, -0.29857594, -0.3003235, -0.6383054, 0.0535404, -0.10583804, 0.11661468, 0.06498106, -0.06416106, 0.14560898, 0.084373794, -0.0027304827 ,
-1.0174164, -0.11637664, -0.29659718, 0.32832006, -0.33643532, -1.2582926, 0.26085308, -0.07766285, -0.094556324, -0.33966893, 0.12732317, -0.17569968, -0.35949212, 0.13065602, 0.24242687, -0.053129077, -0.07312921 ,
-0.4427365, -0.26044852, 0.19674635, 0.21173802, 0.34814394, 0.6673007, 0.34248906, 0.7365452, 0.11343934, 0.15660577, -0.10055978, -0.013824873, 0.17357461, 0.19465892, -0.022197518, 0.13520765, -0.036465775 ,
-0.09028955, 0.23010568, -0.1673018, -0.24107264, 0.45860955, -0.3441354, -0.19892873, 0.45388225, -0.27308998, -0.106254086, -0.27930102, 0.14530738, -0.22500347, 0.08172941, -0.15934502, -0.10680218, 0.057747684 ,
-0.4598189, -0.48973724, 0.198782, 0.50252944, 0.20769729, 0.27405652, 0.76216656, -0.37075412, -0.06583707, -0.025779277, -0.06175059, 0.044653744, -0.17334102, 0.21946667, 0.13157667, 0.08641038, -0.3047782 ,
-0.7528935, -0.09164624, 0.23411809, -0.38331574, -2.6545389, -0.46070537, 0.47120476, 0.18978395, -0.1399687, -0.15319641, 0.15383904, -0.36035776, -0.18041986, 0.053659312, 0.06520059, 0.09062354, 0.0062851496 ,
0.039741382, -0.39815673, 0.63449216, 0.18074994, -0.17462273, -0.4694786, -0.21517257, 0.5850635, -0.384647, 0.16479394, -0.4008781, 0.00868072, 0.2920155, -0.11253666, 0.49080554, -0.10530419, 0.09486197 ,
-0.13486367, -1.0237658, 0.48630258, -0.09329321, -0.3238707, 0.54634124, 0.44373524, -0.94299686, -0.6733434, -0.38416162, 0.06211696, -0.061447896, -0.3225091, -0.26216462, 0.23369922, 0.21815515, -0.026216485 ,
-0.70455515, -0.46077493, 0.346053, -0.16998927, -0.8620907, 0.115844965, 1.1367416, 0.67862076, 0.27628928, 0.1765866, 0.27844617, -0.29145616, 0.076137125, 0.1330847, -0.11424907, -0.22357081, -0.007845301 ,
-0.5127532, 0.6056237, 0.11415935, -0.25956222, -0.8548373, -0.48822072, 0.15234861, 0.7791197, 0.009528731, 0.07945536, 0.10881888, -0.08734406, 0.0053153825, -0.25222585, -0.090275526, -0.22114953, -0.09710981 ,
-0.37522522, -0.9851721, 0.17905071, -0.6600908, -0.67064273, -0.40793675, 0.6600111, 0.17731786, -0.6450092, 0.22940642, 0.16531949, -0.19788343, -0.120269716, -0.33595657, 0.047835443, -0.40055874, 0.08455887 ,
-0.52172667, -0.48082602, 0.18664809, -0.68688303, -0.68418795, -0.3344341, -0.13268219, 0.7634454, -0.14216572, 0.28692332, -0.11253812, 0.56401724, 0.17074472, 0.059804965, -0.38519108, 0.065781824, -0.07611521 ,
0.29330552, -0.30443788, 0.117183864, 0.28417525, 0.12195582, 0.41789004, -0.242703, -0.105591945, -0.18396041, -0.34952813, 0.111019574, -0.15554889, 0.16552514, -0.182756, 0.010570842, -0.13900416, 0.00994092 ,
-0.46974394, 0.4804257, -0.41420436, 8.042113, -0.09536776, -0.34627908, -0.049908005, 0.13182132, 0.30588076, 0.011564511, -0.0779877, 0.062696345, 0.047772676, 0.0074804355, -0.007597342, -0.009471403, -0.019044034 ,
-0.6528478, 0.23931392, -0.13905543, 0.89415956, -0.47621888, 0.0065101665, 0.013596919, -0.49757802, 0.114845596, -0.25347838, 0.22548938, 0.18903318, 0.021662463, 0.10133686, -0.20971982, -0.2336368, 0.038306203 ,
-0.24714604, 0.78680515, 0.22138482, -0.2148321, -0.13141574, 1.4757736, 0.140632, 0.08669895, 0.066632666, 0.09846856, -0.38109693, -0.067517824, -0.2642929, -0.086116485, 0.025993153, -0.28888258, 0.13675562 ,
-0.7466698, -0.5732898, 0.39174557, 0.98004085, 0.68809545, 0.9983472, 0.16605361, -0.48060435, -0.17183371, 0.017202318, 0.04379431, -0.24259429, -0.58062595, -0.2034306, 0.21801396, -0.18778507, 0.021564653 ,
-0.034313105, -0.015319499, 0.066694014, -0.056808367, -0.40210316, -0.18645531, -0.4112181, 0.6760299, -0.7022031, -0.05861207, -0.44178742, 0.036207635, 0.30759826, -0.14310399, 0.14911988, 0.080849566, 0.17296092 ,
-0.079701595, 0.35562333, 0.008834278, -0.5087572, 0.096460596, 0.6223041, -0.006890776, -0.056830965, 0.030933276, 0.13125782, 0.16923705, -0.19972432, -0.091243155, 0.18189865, -0.3254799, -0.35476816, 0.040386096 ,
-0.5939693, 0.24062675, 0.3742783, -0.3310139, -0.40187755, 0.48149264, -0.303136, -0.15451571, 0.39035064, 0.18836826, -0.06871377, 0.03629089, 0.09702745, -0.043206103, 0.034718893, 0.14849868, -0.16080377 ,
0.24204911, -0.87148285, -0.23124969, 0.07551144, -0.071213506, -0.13167623, -0.0817174, -0.4599506, -0.025973234, -0.07772269, -0.3316001, 0.2242528, -0.06008892, -0.093346015, 0.031247515, 0.2023152, 0.18161666 ,
-0.86357963, -1.0514216, 0.592655, -0.8335791, 0.0034881944, 0.04276362, -0.028869426, 0.112156205, 0.23065205, 0.21806233, -0.05286668, -0.092561394, -0.15114364, 0.028346913, -0.17723288, 0.022538915, -0.2263457 ,
-0.027639212, -0.2253186, -0.21463643, -0.07887223, 0.06977343, 1.4920795, -0.21821798, 0.40501848, -0.16451497, -0.074793294, -0.19815777, 0.14380533, 0.07662742, 0.25460726, 0.0541136, 0.09122797, -0.050097175 ,
-0.206221, 0.26616028, -0.16355453, -0.21458893, -0.3641373, -1.5530574, -0.15471421, 0.18770899, -0.25711575, -0.33330035, 0.15285073, -0.244433, 0.08234876, 0.25363913, 0.27189872, 0.13854618, -0.047293868 ,
-0.46781123, 0.437471, 0.08752234, -0.48539206, -1.5563645, 0.19957757, 0.7901941, -0.7443094, 0.011760242, 0.4537273, -0.11010346, 0.06840246, -0.20453626, -0.10487682, -0.048468187, -0.07775786, 0.084612034 ,
-0.5039695, -0.84885335, 0.10957117, 0.16592905, -0.3030661, -0.16106914, 0.45066908, 1.7281582, -0.14672364, 0.3196193, 0.2626314, -0.14221744, 0.1791498, -0.06923884, -0.02254178, -0.07359544, 0.01076687 ,
-0.4978201, -0.41762093, 0.49595943, 0.64020056, -0.3663341, 0.08387106, -0.06507276, -2.1899533, 0.0432104, 0.2148349, -0.039559595, -0.14182626, -0.10477333, -0.02678721, 0.13045774, 0.0828597, 0.020409353 ,
-0.69909364, -0.9475291, 0.28776965, -1.3265982, 0.107240215, 0.1490134, -0.7757542, -0.71140283, -0.87147886, -0.23213439, -0.2609857, 0.015584824, -0.05056424, -0.34087965, 0.007914365, -0.12650777, -0.072572745 ,
-0.4917057, 0.47984788, 0.14934702, 1.0347465, 0.05819083, -0.45465356, -0.104390666, 0.32468477, -0.3979048, 0.6691649, -0.46799237, 0.22048937, 0.037968233, -0.12806575, -0.039458476, 0.031412356, -0.028741805 ,
-0.8229839, 0.240199, 0.41321015, -0.16587253, -0.24370168, 0.0027000855, -0.6472935, -0.08195138, -0.1217293, -0.68300724, 0.07874601, 0.1399896, 0.127322, -0.07159754, 0.010416993, 0.22793776, -0.0012362881 ,
-0.66003495, -0.2908961, 0.22261524, -0.0114821745, -0.78896606, -0.3386183, -0.62719864, 1.8086439, 0.10600781, 0.2050456, -0.12808561, 0.020024002, 0.0046535223, 0.012067942, 0.09700546, 0.096476294, -0.10831236 ,
-0.45423076, -0.760565, 0.7046106, 0.32514927, -0.17465293, 0.19396497, 1.0056341, -0.39413676, -0.5727843, 0.49405837, 0.18332359, 0.14357097, -0.3234917, -0.14240256, -0.11826218, -0.26658413, 0.15435258 ,
-0.80746347, 0.62567395, -0.171805, 1.497725, -0.118066296, 0.024463402, -0.6327611, -0.43260056, 0.30670178, 0.20961243, -0.16525106, 0.05939216, 0.07752202, -0.14427957, 0.07850884, 0.08864823, -0.12318499 ,
0.3468338, -0.560606, 0.24648741, -0.23033464, -0.5684792, 0.850002, -0.15265206, -1.1016711, -0.5194699, 0.08647326, 0.043704733, 0.016459629, 0.29880217, -0.109289214, 0.08803094, 0.106312655, 0.011746372 ,
0.50442666, 0.016344229, -0.16255999, -0.06747921, -0.016810374, 1.5905135, -0.25205746, -0.27233413, -0.621852, -0.38188514, 0.090059504, -0.0002705442, 0.045744956, -0.15022875, -0.24764538, -0.06084359, -0.032614894 ,
-0.19183546, 0.2288171, -0.20171706, 1.9764904, 0.08419313, 5.683876, -0.47007674, 1.0276651, -0.2242978, -0.094529755, -0.26704937, 0.07473668, 0.11842485, -0.02864074, 0.19351304, 0.14382172, -0.026414355 ,
-0.31225008, 0.08085474, 0.08191899, 0.855629, 0.24770363, 1.8316629, 0.09302341, -0.52218896, -0.013061077, 0.6335189, 0.048687574, -0.10347743, 0.26474196, 0.036613483, 0.053339925, -0.030609054, 0.10768663 ,
0.047661003, 0.10060338, -0.57352287, 1.043971, -0.19484454, -1.2930331, 0.54352957, -0.44374442, -0.54077625, -0.41094616, -0.27831075, 0.20311473, -0.07434689, 0.22447881, -0.04830684, -0.2018064, -0.042939533 ,
-0.2557965, -1.1951537, 0.06588685, 0.23871884, 0.06396703, 0.0875973, 0.4667488, -0.5554009, -0.13469744, -0.1463766, 0.40871376, -0.10140559, -0.14522454, 0.009361177, 0.13144673, -0.015198161, 0.043890048 ,
-0.44988358, 0.54498696, -0.3372393, -0.92250127, 0.12871075, -0.62332237, 0.028627547, 0.054127336, 0.58981, 0.109207384, -0.031525057, 0.03683572, -0.009037009, 0.005775986, -0.059787955, -0.051395386, -0.019496245 ,
0.25809997, -0.36843637, -0.06156568, 0.7562995, -0.35233378, 1.6275644, -0.06863253, -0.29783475, -0.17561375, 0.4847979, 0.09878981, 0.02519689, 0.2645132, 0.105620086, 0.10324266, 0.21571071, 0.017615398 ,
-0.26812008, -0.70991826, -0.243303, 0.30959958, 0.14171903, -0.25495127, -0.0920573, -0.3625261, 0.121922344, -0.36528116, 0.06862377, 0.030339383, -0.0032854609, 0.10152532, 0.18380807, -0.12281438, -0.21384458 ,
-0.5243389, 0.5433494, -0.3603184, 0.99839365, 0.040354688, -0.54102916, -0.7087216, 0.64735734, -0.38524678, 0.6120285, -0.13040338, 0.1324554, -0.04205779, -0.100604, -0.19744274, -0.23030317, -0.007488082 ,
-0.87391907, -0.41552037, 1.7184767, 0.31424466, -2.5128386, 0.78000194, 0.45059496, 0.31644765, -0.08965298, -0.6067856, 0.99241316, -0.6116038, -0.32174924, -0.024410682, -0.27143016, -0.16355269, -0.014980814 ,
-0.35382652, -1.5434353, 0.10085379, -1.7204082, -0.5358293, -0.08877162, 0.11113879, 0.10451316, -0.5945195, -0.15658224, -0.37466946, 0.049411114, -0.31677818, 0.052346963, 0.18688737, 0.021419248, -0.17117727 ,
-0.3517836, -0.1191209, 5.278986, -0.61168694, -0.51436657, 0.8102082, 0.71748537, 0.2048109, -0.17996709, 0.0025401684, 0.33034915, 0.17921767, -0.015951417, 0.03695941, -0.47508955, -0.047828775, 0.0978843 ,
-0.3586485, -0.37157056, -0.12455506, 1.6593776, -0.17381741, -0.04518206, -0.10176463, -0.10758401, -0.23032619, 0.08603696, 0.24703266, 0.19202216, 0.021319697, -0.22905648, -0.06618603, 0.26626894, 0.066551216 ,
-0.6778697, -1.1030596, -0.6061497, -0.4247433, -0.48169145, -0.8910687, 0.05821435, -0.38828987, -0.4441496, -0.17660615, -0.025252614, 0.12479644, 0.108838566, 0.20068711, -0.28793567, 0.2924934, -0.07250257 ,
-0.49012575, -0.72399443, 0.2711905, -1.4568645, -0.8527247, 0.40641525, 0.12211978, -0.031119008, -0.24871975, 0.17470291, 0.32373515, -0.25110072, 0.32661283, -0.0048150583, -0.22560737, -0.1399259, 0.10842947 ,
0.18057422, 0.016970119, 0.0021411572, -0.11619108, -0.05811229, 8.47003, 0.03813593, -0.037578274, -0.026089007, 0.09777944, 0.015072893, -0.08817397, -0.030240137, 0.0012146006, 0.10736539, 0.044669393, 0.010311074 ,
-0.41380107, 0.72133356, -0.046633046, -0.08674798, -0.2240839, 0.35762253, -0.54214305, 0.12395158, 0.117467135, 0.08328341, -0.25047883, 0.23359862, -0.16070718, -0.10824848, -0.303179, 0.02492018, -0.17575495 ,
-0.39908794, 0.23734927, 1.5062553, 0.499773, 0.3735154, 0.04859438, -0.27676088, 0.093078114, -0.19754852, -0.40353918, -0.21288244, -0.01594253, 0.2411266, -0.10769942, 0.029960277, 0.18753168, 0.15606758 ,
0.4241752, 0.42490378, 0.12677208, 6.3486896, -0.56854177, 0.16453764, 0.021504916, 0.28700197, -0.24639769, 0.23268938, 0.07938764, -0.0066409446, 0.11062083, 0.046761, -0.021259127, -0.08726762, -0.06015708 ,
-0.16079974, -0.5067412, -0.31797385, 0.8601555, -0.08298695, -1.3013957, 0.24021871, 0.8295986, -0.13416654, 0.16204804, 0.06858644, -0.14211582, -0.03803258, -0.028297788, 0.09506872, 0.16659091, 0.027591273 ,
0.0023688402, 0.11924437, 1.302702, -1.553414, -0.29271448, 1.3464255, 0.15928313, -0.10776521, -0.49343306, 0.428629, 0.046945788, 0.22155732, 0.097952075, 0.049681544, -0.28184128, -0.35823318, -0.21587765 ,
-0.55005836, -0.69453675, 0.09781874, -0.9656695, 0.29602835, 1.0753556, -0.027964633, -0.11320998, -0.9603351, -0.33888745, -0.2887071, 0.09402093, -0.022022244, 0.22613464, 0.10153426, -0.066113174, 0.19964162 ,
-0.64392793, 0.10744216, -0.18928526, -0.12022026, -0.8178733, -0.1219806, 0.2109463, -0.040802933, -0.5590143, 0.1494405, 0.07338291, 0.12660041, 0.10984319, 0.09244054, 0.17842779, 0.08881446, -0.15286899 ,
0.00053950277, -0.40976965, 0.1827297, 0.293884, -0.43940476, 0.8239142, 0.0815335, 0.83607376, -0.14058422, -0.013723923, -0.12632936, -0.034749486, -0.25426283, -0.18322697, 0.2987489, 0.21140294, 0.04828979 ,
-0.11723857, -0.52790725, -0.24882756, 0.6454176, 0.33339474, 0.9682533, -0.22155176, -0.21244235, -0.50861114, -0.40331918, 0.12817332, 0.22217545, 0.2033089, 0.10195356, 0.17430368, 0.25323683, 0.09242902 ,
-0.635491, -0.35842416, 0.20260434, 0.36203068, -0.17575616, -0.1814897, 0.12283082, 0.026912253, -0.6724291, 0.44000825, -0.14273748, -0.21395174, -0.12006265, 0.0028983483, -0.1544958, 0.12902895, -0.15346529 ,
-0.650214, -0.2774564, 0.13920534, 1.0668539, 0.014846761, -0.46042278, 0.3412605, -0.11662678, 0.116526216, 0.08393459, 0.0795642, 0.17571107, 0.2803947, 0.21774684, -0.17197578, 0.13210419, -0.10947687 ,
-0.39084184, 0.6786763, -0.3140857, 0.31660149, 0.5303263, -0.80147487, -0.09676174, 0.008426009, -0.24535401, -0.16102476, -0.26726857, 0.011742216, -0.16921356, 0.012762555, 0.2515712, -0.28714922, 0.17573154 ,
-0.94119763, -1.2462585, 0.15001978, 0.559654, 0.37781885, -0.07657722, 0.591377, 0.6210553, 0.06397881, 1.0100539, -0.047916833, -0.08217421, -0.0873679, -0.013733057, 0.113246076, 0.050495658, -0.052408338 ,
0.6603639, -0.8975903, 0.22651257, 1.0764922, -0.42969298, 0.2344937, 0.12286387, -0.09084108, -0.54650867, 0.17980555, -0.2648677, 0.018128011, -0.12336305, -0.14568754, 0.22014965, 0.0011006213, 0.04862814 ,
-0.2044986, -0.5102074, 0.32954863, -0.3146537, -0.3671062, 0.22488345, 0.5847804, -0.47025776, -0.62931633, -0.16635738, -0.26668435, 0.21384875, 0.14423305, 0.36755678, -0.30432218, -0.14586586, -0.07845441 ,
-0.69037944, 0.5802009, 0.5098923, -0.3065641, -0.0046882425, 0.57826, 0.006895732, 0.5063575, -0.085216835, 0.7766156, 0.31864968, -0.07987681, -0.18924724, 0.00030112636, -0.3026375, 0.058477387, -0.081792235 ,
-0.35990256, -0.8799801, 0.31761956, 0.38737375, -0.52110386, -0.13906103, 1.3380741, -1.5101758, -0.25199497, 0.3743014, -0.32972047, -0.098799646, 0.030302439, 0.026452506, 0.31051782, 0.10564904, 0.00636149 ,
-0.4802927, -0.54365885, 0.60126805, 0.42118624, -0.49521863, 0.42232624, 1.1107966, -0.31516576, -0.5840856, -0.19541089, -0.24580829, 0.23200624, -0.2409887, -0.16418476, 0.18460649, -0.19313805, -0.07501791 ,
-0.2881966, 0.04349743, -0.17809443, -0.72254556, -0.062368214, 0.8458991, 0.6330115, -0.62743753, -0.17093839, -0.3468787, 0.098619096, 0.1170691, -0.43905118, 0.05571909, -0.42681307, -0.19227052, -0.055451106 ,
-0.71271193, 0.24189755, 0.39912242, -0.31834552, 0.26279664, 0.37746316, 0.850662, -0.4628302, -0.17470902, 0.10494441, -0.030063938, -0.016749037, 0.18455066, 0.25052497, -0.16848095, -0.28860798, 0.03542676 ,
-0.93602157, 1.5139395, -0.71836364, -0.029686151, -0.13059472, -0.92560804, -0.42968202, -0.25283086, -0.45669222, -0.9143685, -0.40541106, 0.22425097, 0.14573139, -0.018633386, 0.12018337, 0.085236005, -0.019539211 ,
-0.1990607, 0.72310066, 0.3285418, -0.46560562, -0.24718519, 0.7977019, -0.8453251, 0.6299084, -0.08150385, -0.13722707, 0.021796413, -0.30548885, -0.20051463, 0.009153787, 0.29688552, 0.0517937, -0.08761188 ,
-0.520197, -0.7101497, 0.308641, -0.12633418, 0.82485706, -0.580709, 0.28086352, 0.104492925, -0.074136674, -0.08099617, -0.256831, 0.06276379, 0.095621526, -0.035493597, 0.41148844, 0.36314002, -0.23833473 ,
-0.30192488, 1.0717045, 2.260237, -0.20547737, -0.53024524, 1.8216553, 0.09767554, -0.6208293, -0.2941765, 0.32147366, 0.0981679, 0.18440914, -0.36669618, -0.11952127, -0.25093213, -0.1499736, 0.003846997 ,
-0.26952848, -0.07367711, -0.22336309, 0.42295992, -0.25062534, -0.77010584, -0.16358627, 0.65360737, 0.21368375, 0.17135426, -0.01049644, -0.08702367, 0.00967222, 0.11934917, -0.01845401, -0.036462888, 0.23585205 ,
-0.613807, -0.17768116, 0.23071416, 0.1997699, -0.19138929, -0.3819853, -0.3019674, 0.1823154, 0.07407539, 0.24356909, -0.021649279, 0.047686733, -0.019645456, -0.11653714, -0.2455113, -0.005362994, -0.12588036 ,
-0.48261753, -0.32444566, -0.16175714, 1.2000531, 0.36990297, -0.6138694, -0.1657553, -0.2738087, -0.28091952, -0.81379485, 0.44851002, 0.35740188, 0.21134642, 0.081971064, -0.8492518, -0.24556783, 0.13049713 ,
-0.26657823, -0.5989188, 0.48421514, -0.2626453, -0.2912226, -0.53428054, 0.5583034, -1.2647924, -0.37689942, 0.68801236, 0.07747152, 0.25989228, 0.00235586, -0.07123911, -0.028016705, 0.4468591, 0.034630492 ,
0.084519565, -0.22874048, 0.46397826, -1.2651674, -0.45483434, 2.3422387, -0.6931472, 0.42282417, -0.6403376, 0.45656535, -0.026224665, 0.07708553, 0.19926238, 0.024383266, 0.10817753, 0.07828651, 0.04139721 ,
-0.15217644, -0.28517878, 1.1923062, -0.5679371, 0.3189373, -1.2332188, 0.19341022, 0.043896258, -0.022924604, -0.09270164, 0.12154707, -0.31860834, 0.0341826, 0.07649293, 0.4370171, 0.11194541, 0.092457585 ,
-0.5672379, -0.8207517, 0.43662003, 0.7081297, -0.02274128, 0.1337255, -0.3747746, 0.34279612, 0.04587405, -0.012141101, -0.29805472, -0.08541774, 0.19125034, -0.047150306, 0.06818183, 0.16752632, 0.0465774 ,
-0.8003835, -0.2775443, 0.5413295, 0.5453486, -0.09961297, 0.49138626, -0.045419537, -0.39776883, -0.014783093, 0.06145173, -0.089118056, 0.036308434, 0.1053514, -0.33162767, 0.095146246, 0.090834916, 0.002257442 ,
0.31877306, -0.2714438, 0.58904535, 0.32875863, -0.07618165, 0.58701557, 0.2569161, -0.27066806, -0.6426959, 0.20457825, 0.015162465, -0.14768964, 0.08924897, -0.013296514, 0.47665334, 0.097601645, -0.15991582 ,
-0.6151608, -0.8804159, 0.16876365, 0.4216067, -0.013086086, 0.14832522, 0.40452442, 1.9986094, 0.25751916, 0.19891518, -0.015664957, -0.024732653, -0.02311859, 0.005392561, 0.033803347, 0.018004892, 0.0012756644 ,
-0.44619268, 0.20865415, -0.2816131, 0.116017655, 0.18544357, -0.51170766, -0.25923327, 0.19289456, -0.5367798, 0.34852117, -0.41626534, 0.18746898, 0.1025402, -0.1152507, -0.103973486, -0.08933611, 0.031339515 ,
-0.11392031, -1.6590663, -0.1824188, 0.6648052, -0.3303498, -0.8510855, 0.14493608, -0.49504238, -0.6401793, 0.13036306, -0.26472512, 0.04124966, -0.09895078, 0.13722345, 0.06207536, -0.033876788, 0.06314173 ,
-0.40800405, 0.09563918, 0.24793454, 1.7029201, 0.069951594, -0.21660006, 5.78075, -0.008212547, 0.01581242, 0.047572333, 0.0591211, -0.053369418, 0.076832116, -0.08014788, -0.08957297, -0.056704592, -0.03223966 ,
-0.5960548, -0.7059935, 1.4892882, 0.042300582, -0.25383946, 0.92811346, 0.6930093, -0.16603485, -0.043562524, -0.04431838, -0.037024952, 0.15533516, -0.081125446, -0.03777119, -0.5705456, -0.23931132, 0.2314917 ,
-0.065846674, 0.19626199, 0.34115046, -0.1934664, 0.5259623, 0.50637376, 0.06816505, 0.037565302, -0.040783796, 0.2729118, 0.34448293, -0.10656444, 0.15778914, -0.17309915, -0.23762819, -0.14183171, 0.035058916 ,
0.46038237, -0.34231773, 0.121369764, 0.71112204, -0.32530195, -0.6825389, 0.71186054, -0.84601074, -0.39326203, -0.12541816, 0.17117459, 0.06883078, -0.046772577, -0.020665742, -0.016450275, 0.28055117, -0.0100980345 ,
0.11828981, -1.1994722, 0.50282264, 0.7907656, -0.5389861, 0.41965845, 0.22237408, -0.8334712, -0.34674776, 0.2224633, -0.049372207, 0.014470771, -0.0031142714, -0.0063276105, 0.3096662, 0.13776907, -0.03822712 ,
-0.3301704, -0.92143154, -0.005233942, 1.3455331, -0.38925892, -0.43566105, 0.8765955, -0.86206764, -0.14899625, 0.2379959, -0.01786466, -0.29601094, 0.23972143, 0.04479999, 0.3645728, 0.27782673, 0.009804776 ,
0.37500194, 0.42743808, 0.0008356794, 1.7376993, -0.15013243, -0.44050905, 0.3782281, 0.14357293, -0.27022737, 0.44164464, 0.15964083, 0.19098596, 0.037219297, -0.117619045, -0.35981816, -0.023042355, -0.003280095 ,
-0.21452211, 0.25005507, -0.7267118, -0.5909384, 0.76210403, 0.8041167, 0.1706492, -1.9242674, -0.268999, -0.4158223, 0.6119931, -0.15473679, -0.11061111, -0.014153256, -0.36773056, -0.19633842, -0.004913861 ,
0.07922257, -0.8731817, 0.7487628, -0.4613272, -0.6280201, 0.7845168, 0.28524688, -1.2499247, -0.65689915, 0.7987727, 0.08380331, 0.17893599, 0.30609843, -0.07627591, -0.027862152, 0.14778212, -0.05762639 ,
-0.69276303, -1.4195288, 0.5017131, 1.2748549, 0.16921315, 0.5505493, -0.11470802, 0.04161222, -0.30870762, 0.020610731, -0.30144334, -0.032353334, -0.25406057, -0.04777803, -0.20500651, 0.28501904, 0.07363194 ,
-0.68503386, -0.86550224, 1.6539354, 0.19109382, -0.12620448, 1.7354472, 0.8498985, 0.32564774, -0.27513945, 0.1157739, -0.38463286, -0.2705161, 0.06210176, 0.29435974, 0.23786786, 0.32264385, 0.052366536 ,
0.4123166, -0.7194978, 0.2638344, 6.7139425, 0.23302962, 0.3128922, 0.5153615, -0.017414229, -0.2591099, 0.023011787, -0.12837988, 0.040844332, 0.024889369, -0.0053566946, 0.11104179, 0.05843164, -0.046221033 ,
-0.3713383, 0.78546685, 0.6897462, 0.15915108, -0.019987185, 2.2779605, -0.50223565, 0.08214376, 0.03906933, -0.36542466, -0.15202463, 0.023333129, 0.30158532, 0.002453388, -0.16782634, 0.09506273, 0.00855785 ,
-0.3335749, -0.44676006, 0.23044947, 1.4520972, 0.47639027, 0.4655757, 0.92208785, -2.180445, 8.828417e-05, 0.00810221, -0.0052099978, 0.034280878, 0.015339456, 0.021382462, -0.028422592, -0.03340101, -0.031668246 ,
-0.3744939, -0.9046985, 0.91266227, -0.058638874, -0.48277602, 0.858351, 0.052868757, 0.31608042, -0.35031366, -0.36698067, 0.21150704, 0.24480912, 0.13441028, 0.015326641, -0.2735908, -0.11487393, 0.29504937 ,
-0.4157602, 0.3852407, -0.26035354, -0.42232832, 0.122376956, 1.0394098, 0.4730648, 0.41410106, -0.38923064, -0.20151357, 0.30116206, 0.4353617, -0.15324849, -0.13058361, -0.37292174, -0.15293512, 0.058108248 ,
-0.64080405, 0.24906765, 0.48061138, -1.238148, -0.40053332, -0.032522958, 0.95697266, -0.07576861, -0.4353181, -0.54022056, -0.06896962, -0.049073145, 0.17791443, 0.19218458, 0.018915782, -0.47910997, -0.15072018 ,
-0.4014739, -0.26254466, 1.1520036, -1.3552306, -0.08391024, 2.1393464, -0.23458704, -0.64221805, -0.29601094, 0.7648225, -0.10051867, -0.010903888, -0.058582004, -0.07748941, -0.3230524, -0.12841983, -0.082750455 ,
-0.23357312, 0.05415859, 0.45469663, 0.20611726, -0.17756687, 0.8379049, 0.040590808, -0.33302245, -0.4202594, 0.53940463, 0.29271072, -0.06925807, 0.34334722, -0.17643565, 0.2487488, -0.055663884, 0.064324915 ,
0.12772478, -0.8375044, 0.01755151, 0.25399485, 0.014139662, 0.47889125, -0.17267507, -0.43071923, -0.33435768, -0.38770562, -0.031319454, 0.22439642, -0.07141325, 0.2104385, -0.054461453, 0.1538734, -0.0032205344 ,
0.5192924, -0.86258686, 0.8016452, -0.5867293, -0.47314668, 1.2148327, 0.65658087, -0.24495262, -0.46231264, 0.2716159, -0.33333638, 0.1881308, 0.04938896, 0.058767803, 0.18244912, 0.20129265, 0.013190309 ,
-0.7564799, -0.17359604, 0.2315336, -0.50894207, -0.4849412, 1.4274126, -0.074506834, 0.1384268, -0.32527488, -0.45027927, 0.27534676, 0.2528229, 0.3427315, -0.05221505, -0.48489636, -0.27976537, 0.2704613 ,
-0.48715734, -0.4795079, 0.1693747, -0.42862165, 0.27610537, 0.66234887, 0.84050155, -0.19677243, -0.47692016, -0.11964398, -0.03940649, 0.049861394, 0.005894258, 0.30038682, 0.119350344, 0.049081877, 0.026711978 ,
-0.56931186, 0.84220695, 0.9080451, 0.10325656, -0.37512317, -0.3659026, -0.14508493, -0.2523523, 0.0090867905, 0.24922156, 0.40074912, 0.1694984, -0.19737163, -0.07047969, -0.46640828, 0.18756737, -0.047736492 ,
-0.5178755, 0.08220695, 0.8250117, 0.045612365, 0.15570055, 3.0104966, -0.54656553, 0.052041225, 0.25419402, -0.19524342, -0.021433298, -0.18521099, 0.14059778, 0.019563176, -0.07578077, -0.09492793, -0.07057222 ,
-0.8287627, -0.37483427, -0.16095588, -0.18611938, 0.018711222, -0.67951125, 0.1404725, -0.33379588, -0.36483735, 0.09237017, 0.29395664, 0.12905161, -0.21482721, -0.30714208, -0.044399835, -0.124889165, 0.05175748 ,
-0.8824378, 0.5974996, 0.19183192, -0.744727, -0.35619462, -0.2450228, 0.3559848, 0.08913537, 0.24406782, 0.48141417, 0.101695076, 0.22720873, 0.10659126, -0.2110662, -0.33357784, -0.29363874, -0.01459934 ,
-0.4524377, 0.074679, 0.7685499, 0.31660354, 0.3817936, 0.5807316, 0.41274494, -0.61712116, -0.6647507, 0.45106786, 0.17840143, 0.16097805, -0.004815046, 0.019384248, 0.17717253, 0.2378595, 0.18943632 ,
-0.59043056, -0.11752474, 0.6909167, 1.5076824, -0.56961495, 0.18821213, 0.80067164, 0.44788852, 0.19592609, 0.14134884, 0.598127, -0.2797238, -0.120048776, 0.06537851, 0.045921102, -0.1684333, -0.07553609 ,
-0.646488, -0.4073869, 1.0033247, -0.15654919, -0.33259606, 2.315989, -0.105030455, -0.38230574, 0.1393479, 0.30921707, 0.06001596, 0.14267087, 0.19147113, -0.13401201, 0.13223569, 0.08421718, 0.08700667 ,
-0.41901273, 0.5741304, 0.5814136, 0.36336863, 0.19654682, 0.47385237, -0.14124896, -0.20332797, -0.22499113, 0.3619518, 0.013744807, -0.15514213, -0.2315541, 0.075546324, -0.26730907, -0.020824464, -0.12222752 ,
-0.17851849, -0.799868, 0.6147325, -0.279503, -0.8937078, 1.121279, -0.1425615, -0.6486735, -0.32671168, 0.7385538, -0.1982074, 0.046908215, 0.16641574, 0.18315282, -0.05485914, 0.16323788, -0.0065181395 ,
-0.44623813, 0.038076296, -0.08188562, 1.7651672, -0.063852176, -1.3034934, -0.3366465, 0.77046347, -0.03498706, -0.3522606, 0.35992548, -0.37875757, -0.13137154, 0.076126434, 0.093440376, -0.309409, 0.02697925 ,
-0.042398665, -0.091403574, 0.66715413, 0.019472327, 0.06117877, 1.1840014, -0.25177324, 0.005997924, -0.36092257, 0.22708079, -0.21641457, 0.07328788, 0.1444807, 0.13539921, 0.0025352654, 0.38874683, 0.07780577 ,
-0.15638825, 0.26557365, 0.67526627, -0.8775025, -0.82523197, 1.4660087, -0.4331313, -0.4055599, -0.032682516, 0.41524872, -0.014947099, 0.30295223, 0.23028806, 0.15849681, -0.1969895, -0.031136468, -0.13832334 ,
0.12118026, 1.1626999, -0.3914707, 0.53479856, -0.32070616, 4.054976, 0.17953047, -0.28286415, -0.124997005, -0.6066306, -0.3238893, -0.04732576, -0.028418602, -0.0201595, 0.2728529, 0.08198123, -0.0007054161 ,
0.40605143, -0.3027403, 0.33688697, -0.47479877, -0.41459858, 2.0906734, -0.19536969, -0.17079806, -0.41039968, -0.32728988, 0.038611908, 0.1413319, 0.096307844, -0.16205479, -0.08094523, 0.121227585, 0.08270385 ,
-1.0521654, 1.3300037, -0.8652164, -0.9450329, -0.029454214, 0.32382402, -0.07365257, 0.5071112, -0.32286805, -0.6744982, -0.19127695, 0.06253143, 0.039694365, -0.0058809044, 0.14058913, 0.05011007, -0.0034230696 ,
-0.661926, 0.66762686, -0.11240537, 0.35190678, 0.15646118, 0.13666587, 0.308038, -0.1370919, 0.06597357, -0.2588561, -0.14340203, 0.017328495, -0.17780055, -0.16240865, -0.20035385, -0.42887998, -0.11169667 ,
-0.45012444, 0.37307307, -0.27290705, -0.067143425, 0.69553113, -0.903693, -0.081237815, 0.29514048, 0.22935939, 0.133749, -0.15999885, 0.198237, 0.0135125285, -0.034377817, 0.36446443, 0.08771197, 0.017140495 ,
-0.36847576, 0.50924504, -0.9765379, -0.45639965, 0.5703384, 0.8322273, 0.02087752, -0.7683676, 0.07323575, 0.16227876, 0.26575628, -0.1249874, -0.14656381, -0.21382625, -0.13187853, -0.059500422, 0.05614025 ,
-0.28917766, 0.20076615, -0.4874019, 0.331941, 0.18201254, 2.6342187, -0.3657503, -0.45502552, -0.09926252, -0.5347576, 0.28365567, -0.108649634, 0.25885516, 0.049723815, -0.067760214, 0.09103174, 0.10757224 ,
0.1413687, -0.36745167, 0.8966257, 1.911979, -0.5849764, 0.10749785, 0.45067233, -0.17042966, -0.72022766, -0.058235396, -0.07386414, -0.24192636, 0.2437867, -0.08883361, 0.15944394, -0.08980889, 0.091279715 ,
-0.24305226, 0.7205858, -0.32335362, 0.038189184, 0.12165256, 0.81807303, -0.35708645, -0.24559209, 0.07537713, -0.12240639, -0.037955813, -0.13418196, 0.109471515, 0.025848383, -0.2516518, 0.15697551, -0.022840893 ,
-0.48242453, -1.0855165, -0.9976562, 0.9822921, -0.3991036, -0.59503037, -0.061578944, -0.49044052, -0.43802702, -0.14205489, -0.045794055, -0.09526859, -0.21877272, 0.00051039865, 0.1849585, 0.45278907, 0.14977455 ,
-0.6433596, 0.65425646, -0.13217339, -0.42093265, 0.31537858, -0.10964738, -0.022281498, -0.05977106, 0.1098258, 0.00967582, 0.0073604085, 0.079530306, 0.0032374894, 0.114357114, -0.15157647, -0.2702407, 0.21428366 ,
-0.04836772, -0.6646531, 0.42249674, 0.10614287, 0.16095243, -0.79047376, 0.41160184, -0.46083656, -0.31011358, 0.35289216, -0.36752447, -0.16127005, 0.23403227, -0.06832491, 0.1148589, 0.12488233, -0.016434178 ,
0.14629245, -0.09031991, -0.39086866, -0.41495907, -0.21748465, -0.68373567, 0.26331878, 1.5586998, -0.48694783, 0.3932972, 0.10312508, 0.017116435, 0.0096556265, -0.011326576, -0.070266955, -0.0006109119, 0.05256752 ,
-0.600406, 0.18189885, 0.68688434, -0.18100661, 0.580943, 0.117099434, 0.16649222, 0.06561721, 0.062253233, 0.39272532, -0.095660925, 0.16832572, 0.01442033, -0.08922718, -0.2625803, 0.14893068, -0.020735364 ,
0.021075657, -0.51354605, -0.09746541, 0.7692187, -0.15702511, 1.0964663, 0.14263758, -0.3689293, -0.3202008, -0.20521672, -0.10730941, 0.37965453, -0.22036897, -0.10775453, -0.121932775, 0.21304393, -0.033320896 ,
-0.24693534, -0.60531944, 3.111319, -0.14548141, 0.48721856, 0.337657, 0.34912172, 0.13064912, -0.3758022, 0.1555642, -0.20666239, -0.19021086, -0.33126906, -0.010224389, 0.10736406, 0.14214748, 0.11930263 ,
-0.4497298, -0.58026534, -0.68137354, -1.1033081, -0.3444238, 0.7072873, 0.5511906, 2.0747604, -0.5098224, -0.15854093, -0.02975981, 0.09937354, -0.03595539, -0.043841857, 0.050893273, 0.07264373, 0.027528344 ,
-0.38400882, -0.16711512, 0.22119613, 0.6015644, -0.9003891, -0.3040607, 0.15004785, -1.4977753, 0.0048134564, 0.24112345, -0.16543278, -0.008485578, -0.06301562, 0.10005873, 0.08727906, 0.037019584, 0.040387854 ,
-0.31271932, 0.40029323, -0.3055691, 0.8380139, 0.28011915, 0.21394855, 0.3943302, -0.042648416, 0.07837238, -0.032879565, -0.20540673, -0.22749518, 0.11650179, 0.14641501, 0.047903158, -0.15509172, 0.14440459 ,
-0.4363009, -0.45538187, 0.36336514, 0.56044936, -0.39500403, 0.5055938, 0.067165375, -0.21981068, -0.56159097, 0.060178343, -0.056068316, -0.1479214, -0.22511795, -0.08413022, 0.28046048, -0.28882048, -0.24663892 ,
-0.5558557, -0.21984749, -0.3006206, 0.72608155, 0.05869007, -0.07409019, -0.02002799, -0.3582102, -0.44159827, -0.0031834356, -0.03287501, -0.08312746, 0.057757575, 0.16840437, 0.089749515, 0.3115092, 0.1197614 ,
0.29871702, -0.2033655, 0.5273337, 0.16807759, -0.5402079, 0.79143596, 0.050940197, 0.18823719, -0.7552937, -0.06635917, -0.070988104, 0.27038598, 0.087736055, -0.22771376, -0.05244701, -0.10876929, 0.02529821 ,
-0.49890116, 0.06301351, 1.0986835, 0.88740855, 0.21008284, -0.53522074, -0.7672411, -0.90537137, -0.25786734, -0.7844362, -0.2709055, -0.13939779, -0.14121448, 0.031179195, 0.1712908, 0.24907939, 0.03237119 ,
-0.22441746, -0.007315701, -0.028043685, 0.72581524, 0.48008803, -0.0025979048, -0.12751365, 0.120927915, -0.016523104, -0.13230371, 0.016213583, 0.15860805, 0.35319403, 0.02901624, -0.016188955, -0.062664114, -0.22847024 ,
0.38352254, -0.5367712, -0.2041417, 0.37831968, 0.06496274, 0.3748056, 0.31940484, 0.5596326, -0.382358, 0.14819695, -0.26815745, 0.060525768, -0.10540847, -0.17805588, -0.041288942, -0.3248297, 0.106980264 ,
-0.593418, -0.35300043, -0.15770757, -0.5698941, -0.16116896, -0.26611263, 0.12875384, -0.23648322, -0.37010947, 0.30257142, -0.039823085, -0.21754313, -0.1767183, 0.01672426, 0.29527953, -0.28944182, 0.019555738 ,
-0.67260605, -1.2881223, 0.88948685, -1.1125294, 0.40402442, 0.7135225, 0.36120236, 0.23623711, -0.53071964, 0.29881802, 0.022232711, 0.22071059, 0.07509948, -0.26475573, 0.186313, -0.11402076, 0.25865644 ,
-0.030729907, -0.95548177, -0.2135674, 0.6731202, 0.7155841, -0.25801262, 0.17921598, -0.24799958, -0.36618465, 0.27672687, -0.09150412, 0.17386927, -0.14035851, -0.23889591, 0.047585867, 0.16109458, 0.028345225 ,
-0.4780865, -0.02793093, -0.50939184, -0.6004656, -0.33157578, 0.53862387, 0.23903102, -0.36353716, 0.19653529, -0.02258046, 0.23722836, 0.25779513, 0.085581526, -0.03166357, -0.5973458, -0.09673126, 0.12409282 ,
0.17812206, -0.28226402, 0.6591054, -0.03192011, 0.4058793, 1.1799893, -0.16274714, -0.11608392, -0.5950861, -0.03939, -0.17854844, 0.33322635, -0.04317568, 0.026400136, 0.33325696, 0.032335255, 0.013258991 ,
0.17666772, -0.16629411, 0.8965123, 0.059750542, -0.05396955, 4.3746724, -0.3806771, 0.2851279, -0.21340653, 0.24469244, -0.23567238, 0.26468578, 0.14017746, 0.03723203, 0.0074771433, -0.036486875, -0.038367394 ,
0.25404277, -0.4515945, -0.00491558, 0.110710196, -0.040308077, 1.8529007, 0.1355178, -0.059948456, -0.15529366, 0.058694385, 0.045201052, -0.1231607, 0.00085669727, 0.012643505, -0.07870336, 0.118501276, 0.23619907 ,
-0.36216873, 0.937509, -0.49367464, -0.3194638, 0.23469464, -2.2688324, -0.3350898, 0.010652411, -0.07180106, -0.6485084, -0.059682984, 0.1430316, 0.18366887, -0.0008724566, 0.021630444, -0.012070035, -0.014131368 ,
-0.4328054, 0.5550707, -0.1427347, 0.7282185, 0.08079243, 1.0725483, -0.19533531, -0.05227035, 0.33702964, -0.07169434, 0.0862258, -0.124336526, -0.020832699, -0.101594314, 0.1075072, 0.1987724, -0.13922094 ,
-0.40594175, -0.17094131, 0.33183065, 0.35461506, -0.22515988, 0.16715519, 0.14606571, 0.09955073, -0.6803887, 0.2873192, -0.682226, 0.04359931, -0.017884424, -0.0083579365, 0.61777395, 0.47282928, -0.24165565 ,
0.20397536, -0.0779735, 0.10328162, 0.4537305, 0.709149, 0.095350966, 0.21037363, -0.11379972, -0.6651596, -0.16436781, 0.09113285, -0.25512993, -0.28674358, -0.19369395, 0.08847325, 0.25984025, 0.080998704 ,
-0.6596369, -0.51920444, 0.50319463, -0.03804165, 0.16121297, 0.25082892, -0.19273561, -0.41348523, -0.35810187, 0.08470321, 0.21385488, 0.116582476, 0.071680725, -0.03984078, 0.16770369, -0.21979754, 0.05344879 ,
-0.666598, -0.0188269, 0.40276548, 0.037283346, 0.2222726, 0.49597296, 0.3513492, 1.3175815, 0.1736558, -0.22509146, 0.23403226, 0.10972226, 0.028737769, -0.0071977843, -0.31257266, -0.18361175, 0.0157999 ,
-0.5236756, -0.25000307, 0.5224615, 0.27627572, 0.037046295, 0.64492124, 0.03809786, 1.9893034, -0.07541156, 0.0027883486, -0.035763822, 0.019615235, 0.010446814, -0.0017835626, 0.013150656, 0.010973842, 0.007880048 ,
-0.10775597, 1.1294706, 0.008780798, 2.7075474, 0.27431458, 1.0915053, -0.47600725, -0.008321067, 0.048468687, 0.12200645, -0.008498186, 0.0740161, -0.22415179, 0.014505903, -0.27621898, -0.22909766, -0.075440496 ,
-0.53761864, -1.02072, 0.03440662, -1.5865107, -0.19292504, -0.18431133, 1.104767, 0.073983975, -0.0702047, 0.106890574, 0.35864708, -0.27005398, -0.32077205, -0.033219483, -0.39256746, -0.38561532, -0.053851433 ,
-0.43826833, 0.2882368, -0.116802126, 0.14958051, 0.48590633, -0.4820548, 0.025356518, 0.31187588, -0.2693803, 0.25455165, -0.3841864, 0.018527905, -0.074198626, -0.0050340616, 0.047883086, 0.056998663, 0.28873643 ,
0.025510672, -0.1513574, -0.03480014, -0.6437723, -0.86982626, 0.29671577, 0.0006023639, -0.032117672, -0.48398915, 0.14331971, 0.035443343, -0.113736846, 0.21847673, 0.12914775, -0.049296465, -0.1502204, -0.12093983 ,
-0.6678609, 0.8986076, -0.6291747, 0.16688742, -0.48607454, -0.9910599, -0.4564, 0.40848362, -0.042484965, -0.42000103, -0.044888645, 0.0699661, 0.016528184, 0.12689471, 0.10769249, -0.19869612, -0.09013446 ,
-0.925566, -0.07800472, 0.7215451, -2.2022865, -1.9044093, 0.19299713, -0.3507857, -0.38378042, 0.25157487, -0.2654246, 0.53639394, -0.31217685, -0.1897827, 0.006880232, -0.24914545, -0.18612625, -0.027301269 ,
-0.3033366, -0.34993175, 0.6401501, -0.48105964, 0.3748349, 1.8701985, -0.11256148, -0.0027523763, -0.23031127, -0.09962252, 0.10883366, 0.03885838, -0.22213782, 0.110157244, 0.020079726, 0.27804616, 0.108723246 ,
-0.4134556, -0.27505648, 0.23360866, -1.5588355, 0.3218144, -0.40886444, 0.94363946, -0.38033614, -0.010892101, 0.4093573, 0.108086206, 0.030217895, 0.10249199, -0.19723623, 0.14479518, 0.13506553, -0.07852187 ,
0.123890236, 0.043098945, 9.762827, 0.21265039, 0.06555641, -1.2167369, 0.076554924, 0.038744118, -0.07036316, -0.060437992, -0.057073575, 0.14546858, 0.04891267, -0.0062805363, -0.05606602, 0.012505673, 0.013513914 ,
-0.389226, 0.44914275, -0.19653897, 0.041367356, -1.1877584, -0.21843036, 0.7112502, 0.024799973, -0.39513522, 0.3155458, -0.13637502, 0.08707608, 0.09840682, -0.085294716, 0.18382835, 0.08975557, -0.21487413 ,
-0.7227484, -0.67363, 0.21666068, 0.69793826, 0.026260676, -0.30997646, 0.5259762, -0.4187384, -0.1363979, -0.1309237, -0.01844156, -0.03263912, 0.3359356, 0.14700893, 0.17027788, -0.21087562, 0.12485655 ,
-0.20104945, 0.564986, -0.27199003, 0.3044017, -0.24356891, 1.757344, -0.45691365, -0.4643071, -0.021781834, -0.20941412, 0.50822824, -0.07332101, -0.1929301, 0.07645661, -0.5049291, -0.29252216, -0.040439457 ,
-0.12893417, 0.028595233, 0.7870532, 0.30194917, 0.1891039, 2.451587, -0.19576982, -0.70861375, -0.19938758, -0.37945977, 0.16932271, 0.058297034, 0.085089654, 0.20832682, -0.19600631, -0.17026806, -0.037595425 ,
0.00625604, -1.4386044, -0.5858514, 0.0721492, 0.45969185, -1.0652927, 0.2004737, 0.10810757, -0.5968063, -0.089780055, -0.24970879, -0.2046755, -0.035856552, 0.031799223, -0.18296082, 0.0556634, 0.031329993 ,
-0.22263712, -0.1210115, 0.28531256, 0.81583834, -0.38540068, 1.8388305, 0.12548119, -0.18449022, -0.11888368, -0.06482665, 0.09007627, 0.13858579, -0.118294336, 0.0703136, -0.16440287, 0.17242888, 0.17850342 ,
0.17184065, -0.78234106, 0.8420386, 0.16952589, 0.82803756, -0.77930796, -0.41630253, -0.058969095, -0.43596646, 0.1063473, -0.24941917, -0.023399994, 0.20298438, -0.12732251, 0.26001498, 0.1407576, 0.0076444396 ,
-0.5569506, 0.04238809, 0.48468158, 1.2686841, 0.5940233, -0.271059, 3.4789183, -0.7206971, 0.04019018, -0.43269366, 0.13561967, -0.05920911, -0.16496973, 0.15279141, -0.21948402, -0.098855756, -0.007983533 ,
-0.42254564, 0.7785645, -0.9902651, 0.7694556, 0.13873056, -0.2682559, 0.3001305, -0.08910091, 0.14421834, -0.441313, 0.28679127, 0.109947614, 0.2571278, 0.0065603536, -0.039835367, -0.1874507, 0.09228565 ,
-0.5124923, 1.2299366, 0.09398183, 0.9684672, -0.3047762, -0.14408205, -0.22142516, -0.9258703, -0.07635362, 0.47560126, 0.16419607, -0.08091793, -0.28162587, 0.08657575, -0.20327315, -0.14201769, 0.21398547 ,
0.1575102, -0.17970306, -0.2639587, 0.8372795, 0.32680786, 5.92742, -0.86677295, -0.59724635, -0.24551292, -0.41175166, 0.09387205, -0.11104382, 0.027645072, 0.040566772, 0.074520916, -0.06352502, -0.013194792 ,
-0.59387845, -0.7504839, 0.67944974, -0.45742846, -1.1185467, -0.39998186, 0.13829586, 1.4290054, -0.014771622, 0.15382375, 0.1467855, -0.06878438, -0.15315418, 0.075670555, -0.17122273, -0.039209463, -0.10233111 ,
-0.5491479, 0.23982902, -0.42649254, -0.4754358, -0.1045255, -0.79946065, 0.6098124, -0.03129791, 0.077779375, 0.18202826, -0.10669461, 0.16310541, 0.12657562, 0.23971458, -0.18321432, -0.08161707, 0.048018415 ,
-0.8764522, -0.26505384, 0.16039288, 1.167046, 1.0569212, 0.9586538, 0.09762475, -0.9108936, -0.28636578, 0.037855778, 0.12754458, -0.14089453, 0.21923654, 0.28435433, 0.22281279, 0.06924633, -0.14755258 ,
0.11091699, -1.1837615, -0.0074559185, 3.3394327, -0.57482976, -0.09335187, 0.18761992, 0.3498257, -0.24875915, 0.13115002, -0.30056956, 0.02011576, 0.110042766, -0.035114374, 0.037447, -0.19332786, -0.024403417 ,
0.7338998, -0.19731477, 0.60538775, 1.3267955, 0.013698686, 0.35658672, 3.062899, -0.7661032, -0.5808993, -0.11834622, -0.24460238, -0.078772604, 0.04219079, 0.013517867, 0.31513655, 0.22273888, -0.041639622 ,
-0.4882708, 0.3551852, -0.71826535, 0.44185698, -0.46683332, -0.922312, 0.24913454, 0.8648758, -0.1546718, 0.42648795, -0.06486051, 0.039583016, -0.28078857, 0.047818754, 0.045068625, -0.015477289, 0.119238615 ,
-0.6939839, -0.69367945, 3.584335, -0.04710968, 1.7998801, -0.12505706, -0.4884726, -0.3367012, -0.24325442, -0.27397162, 0.1297028, -0.13784677, -0.16496502, -0.109153524, 0.08159487, 0.092045, 0.005388489 ,
-0.6492671, 0.5207433, -0.191489, -1.0783243, -0.3948731, 0.053270858, 0.32292363, 0.54222715, -0.17545356, 0.10741513, 0.0714538, -0.18367878, 0.2085659, 0.002897646, 0.33369797, 0.02431031, -0.19393906 ,
-0.2070388, 0.3837006, 0.011469496, -0.020247605, -0.510176, -0.51559615, 0.14704917, 0.03697129, -0.4114198, 0.1862359, -0.086672, 0.10709394, -0.4001121, -0.043036215, -0.11899044, -0.002229257, 0.18727617 ,
0.3029768, -0.24946912, -0.26865724, -0.25269654, 0.47275722, 0.5189036, -0.15720738, 0.46292853, -0.6697665, -0.22892754, -0.30382007, 0.29394132, -0.10215123, -0.08339848, -0.122441694, 0.12754597, -0.0364146 ,
-0.5999127, -0.5213251, 0.48026302, 0.14220425, -0.056078196, 0.31732756, 0.7159702, -0.33087373, -0.6754443, 0.19897832, 0.18545988, -0.17704509, -0.26275894, -0.048685282, 0.050651368, -0.1288528, 0.26096857 ,
-0.52381814, -0.38421705, 0.37158772, 0.7171954, -0.1795731, 0.42628184, 0.10234565, -0.35812727, -0.41612506, 0.1527484, -0.22545385, -0.108998306, -0.1266348, -0.04021512, 0.4659831, 0.08695954, -0.14511739 ,
0.055376183, -0.71210337, -0.34533942, -0.53376603, -0.054035336, 0.04388139, 0.39195386, -0.09466878, -0.122947596, -0.39892393, 0.041751936, -0.02271797, 0.083836235, 0.016313285, -0.21395384, 0.08200054, 0.15660946 ,
-0.20198335, 0.35976726, -0.37679195, 1.3048246, 0.5029595, -0.038903996, 0.37315914, 0.028887874, -0.42681813, -0.23985662, -0.086212404, 0.17136972, -0.09560515, -0.21625637, 0.21522081, 0.03300629, -0.026167553 ,
0.42981416, -0.1391879, 0.24515535, 2.0508015, -0.19261837, 0.25749242, 0.26682922, -0.11895532, -0.3708355, 0.31448725, 0.0336867, -0.036591195, 0.110905804, 0.144491, -0.00032573607, -0.059037577, -0.0035695706 ,
-0.23017383, -1.1341791, -0.2149356, -0.79372734, -1.0483289, -0.23026097, 0.16045098, -0.27089247, -0.23604701, -0.088839665, 0.18738304, -0.4137266, -0.5046588, 0.08848705, 0.08541124, 0.13383292, -0.105386905 ,
0.21278165, -0.13424519, -0.22206609, 0.77343553, -0.15469342, -0.10324851, 0.047713213, -0.60879946, -0.26693034, -0.20318998, -0.11015246, 0.035842903, 0.15997638, -0.061366692, -0.3566376, -0.2479438, 0.047976285 ,
-0.531015, 0.041426536, 0.58158857, -0.94690657, -0.054291096, 2.845307, 0.3520278, -0.41118428, 0.14789048, -0.035777483, 0.17623548, 0.14447893, 0.1455717, -0.027955288, -0.1057327, -0.21941637, 0.16479614 ,
-0.2069629, -0.16447532, -0.0961815, 1.1698724, -0.23847777, -0.198125, -0.04133678, 0.266309, -0.3432867, 0.058601297, -0.31782857, 0.0021708177, 0.024223324, -0.009803368, 0.19023187, 0.16674727, 0.21721107 ,
-0.6771783, -0.0033916046, -0.020556811, -0.3167258, -0.41138747, -0.16614915, 0.30250853, -0.42486697, -0.2884478, -0.06438509, 0.11255499, 0.18554282, 0.16402195, -0.063044965, 0.10858325, -0.19861035, -0.25124523 ,
-0.23876859, -0.30844527, 0.50875634, -0.20165764, 0.09592496, 0.55446327, -0.23736164, -0.066038534, -0.48733193, 0.33330762, 0.09031323, 0.15423326, -0.038408536, 0.18344204, 0.055179678, -0.30672067, -0.0999869 ,
-0.8639383, -0.14885375, 0.4493613, -0.87890184, -0.26400304, 0.12735698, 0.077839226, -0.55458343, -0.08607197, 0.3838964, -0.1010648, -0.15600605, -0.11523576, 0.06017902, -0.2660275, 0.11007906, 0.18088044 ,
0.28958133, -0.25644428, -0.27550355, 0.515507, -0.011456789, 0.92120284, 0.47499478, 0.050024725, -0.09981272, -0.013892239, -0.13254073, 0.13813268, 0.13831283, -0.069656946, -0.048415046, 0.09943879, 0.17161636 ,
-0.7431828, -0.83540213, -0.30358613, 1.2333752, 0.11997766, -0.9117281, 0.12293784, -0.49286467, -0.13568063, -0.5589729, 0.1170913, 0.058240667, -0.07045309, -0.10318115, 0.03356472, -0.3146511, 0.16043468 ,
0.23397037, -0.22289667, 0.4231345, 0.064528376, 0.19962634, -0.1408476, 0.09365298, -0.7159074, -0.26295677, -0.11684428, 0.10793607, -0.15142183, -0.20611627, -0.2365343, 0.13354126, 0.21240674, 0.18147615 ,
0.08305114, 0.11005652, 0.0049531735, 0.86545473, 0.011605196, 2.70454, -0.05296796, 0.22448722, 0.04234434, 0.09626615, -0.24630035, 0.04067939, -0.09094465, 0.19802345, 0.07662746, 0.047084432, -0.017533282 ,
-0.12702343, -0.4528649, 0.7873687, -0.07498773, -0.16468583, -0.06072159, 0.29471505, -0.28745535, -0.748467, -0.18100075, 0.17542736, 0.10245539, 0.06681664, -0.15808223, 0.1344815, -0.2944001, 0.071462296 ,
-0.76862466, 1.2748532, -0.15598561, 0.26236933, -1.009613, -0.022653334, -0.893624, -0.104987815, 0.32819223, -0.1987364, 0.42411336, -0.22444856, -0.087536864, 0.032046143, -0.16716607, -0.09256494, -0.019137181 ,
-0.49459872, 0.38612106, 0.26876405, 0.03988994, -0.18606824, 0.029339137, 0.86226285, -0.042091314, -0.37710503, -0.41370443, 0.08462163, 0.22141299, 0.09483688, 0.016824823, 0.005934185, -0.22772022, 0.13269036 ,
-0.49570626, 0.572329, -0.5414477, 0.32194278, 0.53142476, 3.8149166, -0.11639419, -0.24616176, -0.0809397, -0.42121542, -0.09221826, 0.09644397, 0.11864889, -0.08866807, 0.109716386, -0.04866749, 0.27184704 ,
-0.30227178, -1.133588, 0.66434866, -0.042558055, 0.20442608, 1.2364577, 0.18929964, -0.13048373, -0.54025114, -0.09822321, -0.33234033, 0.071433075, -0.17766155, 0.03936716, 0.15945289, -0.23540212, -0.2814485 ,
-0.6738974, 0.19470802, 0.2688536, -0.716684, 0.11158643, -0.056411866, 6.1178775, 0.29639572, 0.2540849, 0.22536486, -0.06498188, 0.012311052, -0.016511843, 0.010998262, 0.061254434, 0.012801953, -0.05112753 ,
-0.4933089, 0.6101344, -0.029366322, 0.4356938, 0.37582296, 0.37548235, -0.29962245, -0.19998866, 0.06566739, 0.13850512, -0.057635497, -0.26525867, -0.44028595, -0.10035036, 0.019867558, -0.27386105, 0.023293654 ,
-0.1037232, 0.14040086, 0.25480786, 0.32856023, 0.0069715236, -0.48425102, 0.09420491, -0.17870004, 0.088171065, -0.08896177, 0.058127895, 0.049678043, 0.056014467, -0.059560243, 0.09715686, -0.04578168, 0.30118302 ,
-0.87493217, 0.18548027, 0.3326531, -0.026722493, 0.098363735, -0.009739526, 0.3491662, -0.37949595, -0.44133303, 0.43668622, 0.06180426, 0.158841, -0.22139382, -0.27223036, 0.093518846, 0.35626602, 0.005966513 ,
0.112276465, -1.3173358, 0.09762024, 1.159476, 0.39043903, -0.5700064, 0.1337356, -0.9026055, -0.25066027, -0.07239713, -0.018479522, -0.027301801, 0.03158335, 0.22202645, 0.013754701, -0.08000556, 0.051043775 ,
-0.38685477, -0.81077886, 0.6514448, 0.6354366, -0.26546082, 0.38593116, -0.032167546, -0.1230841, -0.60399467, 0.005944926, 0.057549454, 0.07910063, 0.14932619, 0.05845186, 0.2118354, 0.34124002, 0.28964934 ,
-0.5400942, 0.072853915, -0.06271712, 0.090457305, 0.39932206, -0.17954242, -0.42076135, -0.3490649, -0.012755205, 0.70971996, 0.44468537, -0.10305271, -0.3889446, -0.040673807, -0.23652345, 0.02255585, -0.08799236 ,
-0.6291287, -0.27441046, 0.49545988, 0.27292362, -0.11193855, 0.49570343, -0.10026795, -0.18826213, 0.09250527, 0.25436345, -0.057836615, -0.13942336, -0.04366755, -0.0784852, -0.22267382, -0.09810409, -0.16300216 ,
-0.121342614, 0.66995054, -0.17814612, 1.5062591, -0.065730155, -0.18756475, 0.94982594, 0.56699634, -0.23469366, -0.093825154, 0.07881558, -0.15708782, 0.0316861, 0.0053341207, -0.14704338, -0.14829268, -0.17108084 ,
-0.65708464, -0.14392537, 0.005833025, -1.4110919, -0.0075913672, -0.3658939, -0.34260774, 0.10449412, -0.47065255, 0.1160214, -0.7766893, 0.53331757, 0.41851833, -0.1803255, 0.115600705, 0.013431289, -0.018746242 ,
-0.28137398, -0.20225103, -0.07419885, 0.22045328, 0.16571543, -0.38977683, 0.09726396, -0.40577865, -0.56082106, -0.24654005, 0.025504861, 0.07834111, -0.16494167, 0.120611206, 0.3684068, 0.16557829, 0.15150721 ,
0.25223613, -0.07441443, 0.7056977, -1.0400324, 0.06269054, 1.2650914, -0.095654145, 0.032174367, -0.48471084, 0.22242053, -0.12682097, -0.022342779, 0.16703103, 0.010825762, 0.018201638, -0.22550385, -0.13925657 ,
0.013977048, -0.45668525, 0.25127786, 0.62205887, -0.4913595, 0.4054487, -0.15887156, -0.81908315, -0.36779824, 0.21478477, -0.3020492, 0.18272035, 0.023921661, 0.056529105, 0.017760087, 0.053465515, -0.2788776 ,
-0.26845443, -0.28516135, 0.28153425, 0.6801913, -0.4870692, -0.40253893, 0.34165236, 0.10474616, -0.55804396, -0.083984934, -0.3426366, 0.01356646, -0.13981304, 0.0138751725, 0.25481397, 0.103021346, 0.33241305 ,
0.015398626, 0.024349742, 0.7696717, 0.30988723, 0.0511851, 4.771214, -0.2964771, -0.15178734, -0.13188088, -0.15352485, -0.077499926, 0.1277987, -0.19545405, 0.045937806, -0.08130931, 0.024423, 0.04249807 ,
-0.28819194, 0.565706, 0.120191306, -1.0589535, -0.15333524, -0.5038801, 0.05194074, 0.38019323, 0.117050074, 0.028355867, 0.03240178, 0.13477407, -0.10005464, -0.14508402, -0.037399553, 0.0053170747, -0.17889574 ,
-0.98456043, 0.4663474, 0.06417435, -1.0138838, -0.22655052, -0.4424025, -0.45381308, -1.0633013, 0.212157, 0.033102985, 0.004024468, -0.21902362, 0.2184485, -0.047234748, 0.1933739, -0.21262193, -0.096886836 ,
-0.4117451, -0.055197064, -0.05715649, 0.48584005, -0.19875823, -0.24370998, 0.05926776, -0.24639624, -0.53734577, 0.027489815, -0.022973003, -0.06858382, -0.579718, -0.07865698, -0.066150084, -0.25838572, 0.012683277 ,
0.3891069, -0.5372228, 0.14990558, 1.7911847, -1.1421369, 0.12565483, 0.04995066, -0.52624744, -0.74258137, 0.30367526, -0.106492616, 0.16508266, -0.10743351, -0.12612785, -0.111308984, 0.11325123, 0.17433988 ,
-0.22866872, 0.52059895, 0.848628, -0.2566298, 0.27384242, 1.1588327, 1.602602, 0.3494289, 0.039839897, -0.4256006, -0.18846, 0.23989841, 0.15838502, 0.012267668, -0.005222016, -0.1421583, -0.1514682 ,
-0.090464264, 0.025794877, -0.22248015, 0.8472966, 1.0006435, -0.3273749, 0.9985414, -0.85067713, 0.24727224, -0.14871843, 0.16295329, -0.22409819, 0.00314195, -0.0016027282, 0.033094097, -0.013263212, 0.061357427 ,
};
static const modelData_t LTC_BACKBONE_0_STATEWEIGHTS[16384] = {
-0.05558951, 0.22140874, -0.020344956, 0.1340808, 0.10942104, 0.09640057, 0.005096707, 0.23266463, -0.15621166, 0.045326397, -0.09637096, -0.23339652, -0.09993435, 0.09954051, -0.04024735, -0.019380907, 0.18463144, -0.026359417, 0.12906732, -0.12544255, 0.06820421, 0.10467186, -0.0968154, -0.025704995, 0.008425175, 0.035784587, -0.187501, 0.094018005, 0.033618975, -0.018258443, 0.072959684, 0.050532162, -0.120538525, 0.27028984, -0.03331501, 0.11207284, 0.027790196, -0.03702748, 0.13738054, 0.041353546, -0.08537799, -0.08995218, 0.07104487, 0.12982252, -0.084643856, -0.090631306, 0.03691405, -0.09233983, 0.20568292, -0.011409791, -0.14707547, 0.14485738, 0.16484748, -0.036939606, -0.094117984, 0.14992443, 0.085624926, -0.2774866, -0.053444877, 0.0113404505, -0.010619232, 0.11312392, -0.105555564, -0.09951432 ,
0.019013746, 0.35710305, -0.0012124832, 0.09808008, -0.011329772, -0.050949585, 0.35900983, 0.108125485, -0.44537503, -0.013844904, -0.68725854, -0.42720622, -0.10856111, -0.029997855, 0.096659355, -0.20661622, 0.44294596, 0.2798477, -0.2959546, -0.028755613, -0.106975295, -0.122466475, 0.1496792, -0.11042006, -0.10078971, 0.048185565, 0.039389733, -0.059743073, 0.21302857, -0.07541929, -0.008290642, -0.19680984, -0.34051993, -0.17470782, -0.007411413, -0.12882277, 0.20179227, 0.0950282, -0.1859171, 0.16277596, 0.38095275, 0.18691835, -0.2321501, -0.071503766, -0.14451592, 0.3688019, -0.03552622, 0.25596103, 0.28012002, 0.10046648, -0.23023883, 0.11262446, -0.24875888, -0.24308111, 0.033629246, -0.30513388, -0.13634206, 0.054495867, 0.26056543, 0.022789612, 0.16513507, -0.12234425, 0.03336704, 0.21439531 ,
-0.025382522, -0.22840293, 0.27964717, -0.26934606, 0.099108316, -0.12706755, -0.024962945, 0.1895801, -0.35005847, 0.11544214, -0.03959985, -0.34754238, -0.19862035, 0.15995556, 0.41218045, 0.11989759, 0.17149948, -0.16503434, 0.04144406, -0.0030840281, 0.018500164, -0.054740902, 0.045084592, 0.2821955, -0.10065969, 0.5907284, 0.19765137, 0.118610255, -0.22616082, 0.1804125, 0.2362675, 0.036743563, -0.12355866, -0.06909596, -0.10229772, -0.038316507, 0.054819267, -0.27549386, 0.036629844, 0.01760978, -0.14429957, 0.25470412, -0.04048266, 0.038627934, 0.24790217, 0.24333912, -0.03116872, -0.004460202, 0.39442483, 0.12763558, -0.0010525472, -0.090998724, -0.17672195, 0.12310935, 0.2643899, 0.122404695, -0.3897018, -0.22442624, 0.28352126, 0.10910148, 0.07268762, -0.15107825, -0.121156804, 0.03349685 ,
-0.18608026, -0.12735727, -0.07211187, 0.051928196, -0.022139827, 0.1324628, -0.032401346, 0.21018684, -0.042528484, 0.051187824, -0.111208975, -0.09750684, 0.10565554, 0.008601661, 0.011051907, 0.06414006, -0.05543028, 0.0415467, -0.18584293, -0.050277308, 0.06605422, -0.051189795, -0.06245211, 0.03165628, -0.12769778, -0.06069513, -0.110158086, -0.007381309, 0.01497673, -0.14407244, -0.026562326, 0.00078478665, 0.03915198, 0.16421765, 0.0735208, -0.03715108, -0.026458226, -0.034159932, -0.033478003, 0.080276646, -0.13395646, 0.081866466, 0.1011888, 0.17725745, 0.047171246, -0.042259984, -0.0443129, -0.16166152, -0.025823511, 0.02721162, 0.06626758, 0.09384536, 0.20104976, 0.1110034, 0.15058184, -0.04803792, 0.076737866, -0.18377312, 0.07116392, -0.19245152, -0.030889131, 0.0012727015, -0.2677546, 0.019963847 ,
0.031466845, -0.053819597, 0.026449807, -0.09249176, 0.08698119, 0.0068238014, 0.028079772, -0.05488739, 0.13978575, -0.0130387, -0.08509024, -0.20121655, 0.09885693, -0.01632714, 0.28695267, 0.038645457, -0.039391723, -0.13856827, -0.06925956, 0.008229281, -0.03958319, 0.06362605, 0.021432614, 0.09743922, 0.044634786, -0.123489656, -0.09789759, 0.0733679, 0.01624352, -0.16940817, -0.11343395, -0.05295832, 0.040424723, 0.080180034, -0.10421326, -0.13486011, 0.10273991, -0.0365138, 0.014899828, 0.10511257, 0.049705587, 0.11723657, -0.15200444, -0.007345952, 0.26689312, 0.035823938, -0.034311537, 0.11331596, -0.06848172, 0.022072073, 0.029608928, -0.12841174, -0.03082801, -0.19224972, 0.064960346, 0.10097231, -0.14887708, -0.25676787, 0.12447098, 0.052090537, -0.08138109, 0.020027418, 0.1935813, 0.067493945 ,
0.21201769, 0.036339477, 0.03167129, 0.46416163, 0.34072417, 0.19956276, -0.16182815, -0.07617887, -0.08016541, 0.0834051, -0.12027204, -0.09934084, 0.040327024, 0.15113327, 0.107908, -0.28310627, -0.120913565, -0.066380665, -0.008025008, -0.05943129, -0.14898841, -0.20278342, -0.07968851, -0.14885205, -0.12515602, -0.10188118, 0.07904953, 0.10923548, -0.037206445, -0.110952884, 0.004406029, -0.13962404, -0.07993813, -0.23166946, -0.11493222, -0.0027230068, 0.023661226, 0.0062689227, 0.10154239, 0.013435995, 0.012965637, 0.29667068, 0.2820878, -0.08082342, -0.3722294, 0.10992011, 0.2307823, 0.03590463, -0.03323267, 0.18080907, -0.11982683, 0.09066313, -0.007109756, -0.1334263, -0.11953502, -0.09903795, 0.021444589, 0.25769794, 0.0805749, 0.096397616, -0.017541192, -0.16408871, -0.09357782, -0.16849174 ,
0.0028271745, 0.00012155276, -0.0066605126, -0.0100635495, -0.0030286578, 0.008010931, 0.011311754, -0.0058556246, 0.00021712833, -0.0013660095, 0.0022152583, 0.008403065, -0.020355478, 0.032648575, -0.047539145, -0.003038348, -0.004912764, -0.008056698, 0.00016236908, 0.01632308, 0.011566508, 0.0002585021, 0.0051569184, -0.014942255, -0.0055838404, -0.01772404, 0.00940732, 0.011785288, -0.0189154, -0.008746609, -0.030782234, 0.01639343, -0.0032127541, -0.009257897, -0.00015832175, 0.0119422795, -0.022052886, 0.013619793, 0.008452679, 0.0065678335, -0.0021353096, -0.010591052, 0.026157761, 0.02806642, 0.0047186287, -0.020410694, -0.02354171, -0.01467333, -0.025934689, -0.0092537245, 0.013198336, 0.022229891, -0.0006997478, 0.028779052, 0.040532228, -0.015750004, 0.051439676, -0.006801141, 0.041289203, 4.722069e-05, 0.018578589, 0.017956477, 0.018447544, -0.021714842 ,
0.020013414, -0.015320729, 0.042916305, 0.14587168, -0.053914923, -0.04617079, 0.06294891, 0.02172711, -0.034576084, -0.0137175415, -0.08866891, -0.05764861, -0.026133839, -0.10992378, 0.10076411, -0.068000294, 0.029795447, -0.013363203, -0.034969587, -0.029210027, 0.010902289, -0.0025556108, -0.06991448, 0.034212176, -0.03446068, -0.029978925, -0.15521966, 0.13113172, 0.050884284, -0.12058585, -0.03595841, -0.019773053, -0.005928293, 0.1349658, -0.040392444, -0.047562417, 0.037050765, 0.013614227, 0.06547939, 0.038373165, -0.00035373008, 0.038246445, 0.1022271, 0.061304368, 0.088717036, 0.044293348, -0.1343466, 0.040916782, 0.026905693, 0.028104788, -0.01245999, -0.04487632, -0.06728112, -0.07331091, -0.1785233, 0.19746241, -0.0579796, -0.17037022, 0.044054173, 0.13777713, 0.007858691, -0.022740478, -0.06849608, -0.032538496 ,
-0.013154353, -0.091359206, 0.06960252, 0.026867315, -0.07038548, 0.014833694, 0.09165211, -0.12644282, -0.2281077, 0.12370445, -0.21602537, 0.012770743, -0.23649478, -0.17548881, -0.27253813, -0.16134034, 0.027494952, -0.027587157, 0.017624548, 0.030628845, -0.16595522, 0.11458132, 0.06495346, 0.030086348, 0.04778862, -0.058863234, 0.07618692, 0.066685654, 0.005533815, -0.08452275, 0.29274142, 0.019293845, -0.20815358, 0.32023007, 0.007713811, -0.17270151, -0.073034994, -0.15136297, 0.30700436, -0.11853305, -0.022573866, 0.14231929, -0.09545033, 0.16932781, -0.18254751, -0.060001474, -0.21673994, -0.02210522, 0.18781132, -0.027477099, 0.28797445, 0.15595895, -0.08301365, 0.0067833974, 0.24068697, 0.12329247, 0.024177141, 0.015289505, 0.1785646, -0.0039898236, -0.06775001, 0.031595565, 0.080972545, 0.07534574 ,
-0.1404885, -0.13365474, 0.05376151, -0.11812259, -0.05018551, 0.071647115, -0.014189465, -0.012851647, -0.009040307, 0.08303548, -0.09312099, -0.09601969, -0.053485505, -0.075437054, 0.11114835, -0.06957057, 0.042415567, 0.09446133, -0.09036187, -0.21020621, -0.03426833, -0.06634375, -0.054436397, 0.057796378, -0.050242227, 0.05415748, 0.06423251, -0.051281493, -0.005355624, 0.0042992504, -0.21758312, 0.021328196, 0.00043276526, -0.009562975, 0.09950346, -0.03239932, 0.005959902, 0.0345208, 0.13472083, -0.0614093, 0.10079273, 0.09882859, 0.08841697, 0.06774284, 0.15938334, 0.016171496, 0.027847806, -0.06240316, 0.06498417, 0.05342298, -0.02202589, -0.103628054, -0.08957075, -0.20143583, 0.057052724, -0.15910436, -0.03721984, -0.0933512, -0.09398054, 0.064570844, -0.026453262, -0.07418408, 0.022425711, -0.0020699035 ,
0.02935161, -0.03919804, -0.043646507, -0.001835508, 0.0032773097, -0.024900308, 0.0072262255, 0.031372834, -0.035756074, 0.033199016, 0.021813337, -0.10989486, -0.00069246616, 0.010250612, 0.03411566, -0.019736674, 0.014291565, -0.034126114, 0.041146263, -0.010289008, -0.073708676, -0.010968922, -0.046089314, -0.009116876, -0.011394425, -0.007272779, -0.017743716, -0.08440303, 0.026990792, 0.013799987, 0.032338377, -0.007673251, -0.0050305384, 0.036314856, 0.015372458, -0.00993267, 0.013845457, 0.014746955, 0.021021783, 0.007374258, 0.09992117, -0.0009274313, -0.00047131378, 0.02665986, 0.046090983, 0.036736913, 0.055998493, 0.0170852, -0.024813287, 0.016979085, 0.111737356, -0.04427792, -0.0825673, 0.01637208, 0.028350875, -0.23156223, -0.036996413, -0.017362002, 0.005931056, 0.021390753, -0.028131848, -0.0038458246, -0.06630409, 0.055487577 ,
0.016356047, -0.0533783, 0.04748053, 0.03835236, -0.1548739, -0.10319658, -0.031140136, 0.09975342, -0.19318424, 0.07842439, -0.0049723973, -0.10769819, -0.052053396, -0.07374056, 0.10697725, 0.06479535, 0.039295256, 0.055076666, -0.045027662, -0.22857776, 0.009864938, 0.062425576, -0.097543046, -0.06440558, 0.03515311, 0.074665986, 0.04362932, 0.059212703, -0.0069982796, -0.0718221, -0.061398476, -0.115174495, -0.047721863, -0.016434124, -0.04853096, 0.017382441, 0.22507758, 0.064943716, 0.008747556, 0.020404574, 0.06941353, -0.03282187, -0.15549737, 0.11719497, 0.053753816, 0.036236644, -0.0665564, -0.03664228, -0.036254134, -0.11037884, 0.086422995, -0.21389967, 0.028405262, -0.0045532193, 0.046588518, 0.03782858, 0.010481667, -0.17844903, 0.08468875, 0.06418002, -0.08273917, -0.09177747, -0.150046, 0.018727355 ,
-0.09553778, -0.045522712, -0.018258898, 0.057533797, -0.044892903, -0.014850605, 0.020776838, 0.02392032, 0.056774247, 0.007930357, 0.025422381, -0.045908775, -0.13152821, -0.028984927, -0.02753296, -0.04846253, 0.018710148, -0.036177825, -0.058867317, -0.039668377, -0.026083527, -0.037794586, 0.008526952, 0.018491946, -0.043066774, -0.035404757, -0.085657656, -0.024416178, -0.073622435, 0.0024104533, 0.03188023, -0.010142039, 0.008068692, 0.07196595, -0.016671615, 0.04689954, 0.039968055, 0.050432947, -0.05018619, -0.0044299397, -0.025135003, 0.018249437, -0.03648289, 0.02996424, -0.07813713, -0.013394848, 0.025281774, -0.001225771, 0.15419681, -0.0069034845, -0.012405928, 0.02336667, 0.0410929, -0.028067099, -0.055977836, -0.23034602, 0.019568868, -0.05136787, 0.17006405, 0.020183805, 0.03501508, -0.009729231, -0.07940123, -0.020775532 ,
-0.10396988, 0.111854576, -0.043345343, -0.32923123, 0.0014074931, 0.08822204, 0.07682594, 0.059819844, 0.07648365, -0.07384119, -0.10049396, -0.2404971, 0.0020719902, -0.1771816, 0.10459957, 0.07092911, -0.047357317, 0.019456947, -0.0808974, -0.15195422, -0.17739096, 0.047210082, 0.043016545, -0.020627534, -0.14132412, 0.07520345, 0.020560395, 0.015677432, -0.006871546, 0.1368942, -0.054018583, 0.066432804, 0.1230238, -0.01749682, 0.004754129, -0.103235856, 0.15471189, -0.041448765, 0.018056845, -0.040630847, 0.059171546, 0.13052633, 0.08604114, 0.013501557, 0.051298372, -0.030434301, -0.07969567, -0.13757983, 0.009694878, -0.05720277, -0.016442563, -0.037656844, 0.024317214, -0.031776294, -0.018828848, 0.23151591, -0.040397137, -0.1301616, 0.03468597, 0.098321505, -0.021958772, -0.041697826, 0.090310216, -0.08232046 ,
0.077170014, -0.05649943, 0.06556024, -0.035531137, -0.09437611, 0.14858107, -0.123058155, -0.017885724, 0.04951035, -0.042511832, -0.06107445, -0.2805885, -0.023732392, -0.05860264, 0.051428683, 0.10793814, 0.002314519, -0.065845884, 0.07801963, -0.18548456, 0.013516243, 0.079685345, -0.16207989, 0.038795587, 0.024976566, 0.0042805946, -0.04989264, -0.116281174, -0.09395441, -0.17250368, 0.0059555583, -0.045193166, 0.018915601, -0.050599765, -0.04778527, -0.29099986, 0.015375912, 0.033572525, 0.08801147, 0.047429513, -0.021558456, 0.08586976, -0.030879062, 0.07299523, 0.41212514, 0.02602988, 0.0695689, 0.015133979, 0.28215644, -0.022548158, -0.090216205, -0.13328837, -0.0869918, -0.17275873, -0.03384512, 0.07933345, -0.19900121, -0.2949057, -0.04460705, -0.019314826, -0.15548761, 0.05815237, 0.06862126, 0.056209236 ,
-0.011717995, 0.0078332815, 0.012725715, -0.016467378, 0.009230129, 0.008262564, -0.0069062538, -0.006128679, 0.01684709, 0.001025849, -0.015626175, -0.049373537, -0.014810782, 0.029886201, 0.036046796, 0.0016243625, -0.022232853, 0.0041184262, -0.008643991, -0.022033753, 0.0120162135, -0.013727285, -0.01282115, -0.0025262123, 0.009183018, 0.036050286, 0.00033026945, -0.008232125, -0.0100991335, 0.014937351, -0.027941842, 0.046796553, 0.0038545735, 0.0050906646, 0.008505907, -0.004054527, 0.00986444, -0.0026468632, -0.00209728, -0.013638086, -0.009254474, -0.0117972875, 0.008551042, 0.0096539045, 0.044485025, -0.015745189, 0.017163994, -0.015779454, -0.004576539, 0.0013485673, -0.001399109, 0.011025968, 0.00661314, -0.00027981325, 0.04575503, 0.025420392, -0.027434764, -0.030600915, 0.023562822, -0.015159008, -0.0038843034, -0.0009807439, 0.0029690769, 0.02473135 ,
-0.020963613, 0.04565623, -0.0058480413, -0.019984107, 0.1484602, 0.007280078, -0.06476304, 0.1254709, -0.124000676, -0.12736146, 0.044284657, -0.008988585, 0.048690435, 0.28278238, 0.024587538, -0.22235706, 0.056987617, 0.18467142, -0.013271031, -0.062544495, -0.069582306, 0.056007393, -0.03946517, -0.08310788, 0.086044595, -0.034009095, -0.039312363, -0.034313574, 0.18220843, -0.17306179, -0.04998632, 0.08184408, -0.018047865, -0.052637573, -0.018193658, 0.09439666, 0.08716948, 0.101501614, -0.055039648, -0.055641573, 0.10571192, 0.06803399, 0.03217806, 0.18779024, 0.28098142, 0.030865166, 0.02848575, -0.059787128, 0.090796925, -0.049285118, 0.065495126, 0.08189302, 0.22432324, -0.11583928, 0.05564674, -0.18316355, -0.022371467, -0.38782012, 0.10248639, 0.018043552, -0.030129425, 0.118790306, -0.10477272, -0.11755486 ,
0.24672626, -0.058628988, 0.113835014, 0.077444546, -0.0020511483, -0.0005491676, 0.14998294, 0.1114248, -0.15500978, -0.42540014, 0.016110128, -0.25129098, -0.35126638, -0.22461344, 0.22697653, 0.2331563, 0.034352027, 0.107593454, 0.37958968, -0.2818879, -0.015288825, 0.026325459, -0.03111916, 0.05425482, -0.11388543, 0.10851396, -0.19363584, 0.21748069, 0.04471512, 0.21441308, -0.048496574, -0.122417115, 0.015867189, -0.073726706, 0.034572355, -0.14107573, 0.2714602, -0.1518119, -0.024586665, -0.093636826, 0.29036152, 0.00797437, -0.14038825, 0.11356731, 0.6742073, 0.071474776, -0.022685485, -0.12370657, 0.31117722, -0.12021142, 0.04910124, 0.1736039, -0.123137526, 0.03558165, 0.18257691, 0.21873257, -0.08511087, -0.21476498, 0.3468792, -0.104071245, -0.20786726, -0.14450996, -0.10954353, 0.15401115 ,
-0.05306161, -0.05980895, -0.069093205, -0.11694499, -0.1616818, 0.012843052, 0.17186722, 0.18812467, -0.0927878, -0.10558222, 0.11109254, -0.25908938, 0.07063443, -0.3868616, -0.14779095, 0.022532986, -0.14923988, -0.043540314, -0.08180134, 0.087047674, -0.30253032, 0.078162156, 0.13616258, -0.06033262, -0.055310044, 0.21964957, -0.10554549, 0.31510895, 0.26523063, -0.060881857, -0.24458562, -0.10158703, -0.13442147, -0.17181407, 0.062074125, 0.04373739, 0.13666639, -0.25040993, 0.065869555, -0.110085584, 0.11771478, 0.19997956, -0.038865272, 0.025068095, 0.12876172, 0.027972521, -0.21883379, -0.020125415, 0.098029085, 0.12226453, 0.23526578, -0.1045334, -0.050933607, -0.0015871437, -0.042617124, 0.0929369, -0.12096951, 0.025191212, 0.21482964, 0.12246072, -0.076666154, -0.20211262, 0.021481412, 0.18601751 ,
-0.0062894467, -0.030637067, -0.021373536, 0.09751613, 0.03963203, 0.032520488, -0.0062355227, -0.12698552, -0.09367007, -0.023054056, 0.033679247, -0.13184956, 0.2122211, -0.20798133, -0.09893234, -0.04780107, 0.08686813, 0.006825887, -0.17368843, 0.045917593, 0.009661997, -0.043054275, 0.016514177, -0.09468529, 0.1932614, 0.018656107, 0.04056781, 0.0720931, 0.052073315, -0.0773355, -0.07379444, 0.18000628, 0.07485883, -0.30427125, 0.15406567, 0.0069344942, -0.098865226, 0.011860129, 0.02155094, 0.038817987, 0.15802208, 0.013072262, 0.1464363, -0.04689574, 0.004557617, 0.055010695, -0.09427241, -0.016807327, 0.07203016, 0.033361007, 0.09994509, -0.111748114, -0.0077460944, 0.02024636, -0.05814962, 0.22776951, -0.2979972, 0.012176838, 0.41090474, -0.047325462, -0.044222962, 0.05237985, -0.007614078, 0.089210264 ,
0.21469827, -0.038112573, -0.041755058, 0.01801651, 0.056092344, 0.018814633, 0.039240792, 0.0042843157, -0.24400716, 0.04120969, 0.011742605, -0.082895294, -0.041398194, 0.27194315, -0.123435475, -0.06937706, -0.017021572, -0.004633759, -0.09034531, -0.23756573, -0.08690478, 0.018711012, -0.01484654, -0.011972481, 0.03676644, -0.1859105, 0.02711715, -0.11987888, 0.20308737, -0.08994753, -0.23714744, -0.019364337, -0.120967224, 0.1564246, 0.0042640185, 0.022895878, -0.0687308, -0.058862012, 0.09370857, 0.0025592279, -0.117761195, 0.14146307, 0.011868001, 0.21764909, -0.043223407, 0.05773383, -0.16873668, 0.11127608, 0.013426774, -0.029468557, 0.051866386, -0.014659604, -0.08974299, 0.042674217, -0.05832087, -0.035605166, 0.006437309, -0.22634895, 0.012688922, -0.16306475, 0.08674881, -0.02066543, -0.106481835, 0.016853916 ,
0.032113284, -0.08761514, 0.031891156, -0.13494806, -0.16050228, 0.03906205, 0.055707067, -0.06180834, -0.21509814, -0.1621293, -0.22145171, -0.34222788, 0.06747733, -0.05188814, 0.25418416, 0.10411114, 0.013164624, -0.027775744, 0.028472384, -0.076409705, -0.004109876, 0.20207168, -0.08778109, -0.18936916, 0.0994612, -0.0097949775, -0.08396279, -0.1717109, 0.23643474, 0.105780214, -0.073562115, 0.07846979, -0.12783007, 0.33100107, -0.08598635, 0.09848975, 0.012562241, 0.029414203, -0.08162263, -0.21411552, -0.17563502, -0.3207764, -0.027057124, 0.18295857, -0.2498669, 0.05012231, -0.06309598, 0.04692272, 0.19347642, -0.07062088, 0.013639563, -0.18492009, -0.22998218, 0.08952775, 0.008718729, 0.3011583, 0.0037130988, -0.4979966, 0.23610778, 0.17860231, -0.10443221, -0.056890216, -0.048444524, -0.04154085 ,
-0.058267288, -0.007532597, -0.02623159, -0.03232399, 0.1169329, -0.0022086522, -0.037015196, -0.0013360255, -0.031184511, -0.028934682, -0.12807322, -0.026254142, 0.0007481661, -0.058158252, 0.100463174, 0.022812642, 0.021421643, 0.017630227, 0.02196202, -0.16284402, 0.042515952, -0.09517147, -0.05481553, 0.030286312, -0.07215511, -0.12372202, -0.017968519, -0.0003450195, -0.027311822, -0.059089895, -0.008445525, 0.06787939, 0.057675477, -0.0330118, -0.062225312, 0.15281552, -0.05616694, 0.036875803, 0.007395413, 0.05697757, 0.085482255, 0.09436639, 0.049529742, 0.09898277, 0.21468246, -0.047530953, -0.04907025, 0.012980688, 0.27516812, -0.009645173, -0.058211032, -0.33150417, 0.034359217, 0.060722414, 0.09888654, 0.022152131, -0.19838203, -0.1802058, 0.12925951, 0.035539553, -0.030529998, -0.01286373, -0.020130761, 0.040377427 ,
-0.0040637227, 0.03259262, 0.03279482, 0.016913686, 0.051868934, -0.02781859, -0.04597803, 3.2561366e-05, -0.040608373, 0.02281639, -0.06331694, -0.01574338, -0.064373165, -0.016834194, 0.07464431, -0.06423746, 0.034904685, 0.054481868, 0.0008057788, -0.07707358, -0.13820681, -0.007941203, -0.078474276, 0.0042520524, 0.05208099, -0.032863174, -0.05153305, 0.1052338, -0.098474085, -0.20763448, -0.083585575, -0.018168801, -0.042435035, 0.03303424, 0.024396347, 0.01989678, 0.033471562, 0.06364503, 0.039466225, -0.05460727, 0.09409308, 0.0398936, 0.05164894, -0.0026832526, 0.084007934, 0.074344866, -0.04883444, 0.10649617, 0.15419732, 0.14242081, -0.05913575, -0.16116606, 0.04098719, -0.047063585, -0.028830694, 0.16709936, -0.1056379, -0.089267485, -0.025551338, -0.028943773, -0.08093323, 0.0019045621, 0.016834732, 0.07361467 ,
0.023815382, 0.030605149, 0.031850804, 0.018783702, -0.06556879, -0.040325947, 0.0029395213, -0.012559071, 0.015762068, -0.010031345, -0.04027843, -0.10153612, -0.05961436, -0.06283445, 0.02110624, -0.045530804, -0.015073759, 0.0065750834, -0.072236165, -0.07837196, -0.13479152, -0.007918481, 0.009337752, -0.0060723824, 0.029947743, -0.03618194, -0.02058391, 0.015617368, 0.0829968, -0.048765063, -0.024070345, 0.002584633, -0.0005612201, 0.0812885, -0.026855754, 0.01664292, 0.03910044, 0.004506595, -0.011204006, 0.0048780516, -0.050783727, -0.021688694, 0.0064469646, 0.03755594, -0.051887106, 0.02212628, -0.007050409, -0.0073085916, 0.08114864, 0.039271902, 0.06376907, -0.037528314, -0.012894252, -0.042097457, 0.092230156, 0.090498015, -0.06347273, -0.046101246, -0.14376622, 0.019288082, -0.028260803, 0.011093215, 0.02644386, 0.015674468 ,
0.06855594, -0.13977128, 0.16225283, 0.113208376, -0.10869796, -0.121998005, -0.010183965, 0.33291638, -0.043972455, -0.022706896, -0.050759383, 0.06512335, 0.043859582, -0.1502505, 0.031373397, -0.2663632, -0.002663782, 0.057276882, -0.2195388, -0.021210333, -0.0822689, 0.081559435, 0.040955797, -0.045658026, -0.1542075, 0.09206874, -0.19324857, -0.007089141, 0.054598734, -0.021159817, 0.13195345, -0.17460325, 0.031898994, 0.17238866, -0.044830974, -0.079515934, 0.119859345, 0.05782884, 0.0012996213, -0.16605116, 0.07758906, 0.087008454, 0.17578784, -0.08381748, -0.18398872, 0.036141288, -0.0620047, -0.051961605, 0.031918045, 0.03423341, 0.13940616, -0.32831928, -0.0020967522, 0.22363903, -0.12639141, -0.22409387, -0.10762994, -0.24711426, -0.01723515, 0.041804384, 0.17998117, -0.10504086, -0.046130158, -0.012319787 ,
-0.13931921, -0.0648156, -0.018810146, -0.053290844, -0.07915338, 0.025557991, 0.010203681, -0.059005965, -0.008051779, 0.014756349, -0.02289854, -0.074655995, -0.08319613, 0.035184354, 0.033711024, -0.06886366, 0.028342381, -0.0012009772, -0.058069546, -0.16684651, 0.072476484, -0.02408389, -0.13424797, 0.10111244, -0.020225428, -0.08255774, -0.038556788, 0.053588886, 0.007318187, -0.036303952, -0.106701255, 0.07485095, 0.046523575, 0.07322494, 0.026088547, -0.11903283, 0.081372805, 0.024470387, 0.08662584, 0.0041750814, 0.045683857, 0.13355638, 0.1028199, 0.1456967, -0.083418936, 0.0101971775, 0.023289805, 0.031795867, -0.029678361, 0.21011114, -0.032123566, -0.06356005, 0.044365156, -0.006281601, -0.134739, 0.13220802, -0.13508973, -0.23979059, 0.30344525, -0.057880666, -0.119802244, 0.042410478, 0.19978286, 0.033818346 ,
-0.12411559, 0.022693325, 0.009874233, -0.06087693, 0.051703844, -0.086873814, 0.056364153, -0.06892721, -0.05547197, -0.1026708, -0.06764305, -0.044745617, 0.13082425, -0.11671168, -0.07364745, -0.006932567, 0.087634, -0.0052293967, -0.021897556, -0.08502097, -0.03116378, -0.040020958, 0.028066756, -0.01766204, 0.038157303, -0.04292647, -0.06730761, 0.094023004, 0.11465865, 0.01409376, -0.002094878, -0.15537411, 0.07532716, -0.015129058, 0.0096243955, 0.032813594, 0.08614273, -0.02643584, 0.09986343, -0.009248297, 0.08658411, 0.009985084, 0.12203458, -0.0013985955, 0.097584456, 0.05329281, 0.040335696, -0.014232336, 0.00013250901, -0.04408702, -0.027669588, -0.3022478, 0.004077645, -0.09775944, 0.023706118, 0.29203334, -0.120886944, -0.19272305, 0.08745359, 0.02273562, -0.004933948, 0.019202195, -0.06590728, 0.041704386 ,
-0.028288852, 0.09009968, -0.033321336, 0.029084278, -0.089179166, -0.11421359, 0.14885066, -0.077670135, 0.009464824, 0.13280489, -0.1115375, -0.2494045, -0.046657875, -0.0093823895, 0.019468386, 0.1045633, -0.047869217, -0.11069729, -0.0124072675, 0.096513145, 0.07978458, -0.08820002, 0.048561275, -0.07456618, 0.07316096, -0.03661657, 0.025678406, -0.019076385, -0.17203586, -0.15107585, -0.057138536, -0.104020566, 0.14016086, 0.22053705, -0.04520174, 0.0145945195, 0.15943445, -0.048246708, 0.0433669, 0.0887671, 0.045342714, -0.083173856, 0.07266194, 0.024792962, 0.15344456, -0.0026269727, -0.041523043, 0.012835113, 0.1171245, 0.025846612, 0.14200428, -0.23814505, 0.12563074, 0.0021716217, 0.09894096, 0.14236481, -0.08802478, -0.20462336, 0.22919773, -0.07374943, -0.09543902, 0.019962264, -0.056957252, 0.0019906878 ,
0.023694625, 0.097406946, 0.055263218, 0.13938232, -0.059717428, -0.015287943, 0.2621108, 0.34453174, 0.27644393, -0.13196987, 0.008927301, -0.21637467, 0.17539586, -0.13029441, -0.0038255907, -0.025259309, -0.13530217, -0.40846628, -0.29788163, -0.030968184, 0.21813127, 0.023302693, 0.05274677, 0.026223026, -0.24362661, 0.041720923, 0.3332541, -0.31841344, 0.30103713, 0.18675935, -0.22328183, 0.015816934, 0.03872795, -0.02164241, 0.057722963, -0.046025466, -0.24387044, -0.08826887, 0.053699605, -0.37293276, 0.25152013, 0.14021944, 0.32384703, -0.22943002, -0.023856767, 0.0643486, -0.046125166, 0.068408474, -0.39630008, 0.21660915, 0.09881398, 0.19681303, 0.13475487, 0.07933158, 0.083047956, -0.004948488, 0.02612952, 0.14143512, 0.016203333, -0.21989429, 0.15116335, -0.13659102, 0.06595374, 0.16910395 ,
-0.036297694, 0.03197173, 0.041166794, -0.17554416, 0.06527579, 0.09784037, 0.03924702, 0.17062648, 0.036232512, -0.10248809, -0.0087178815, -0.26889083, -0.10288212, -0.13301244, -0.08049572, -0.16319597, 0.027118873, 0.04428197, -0.017116267, -0.071566775, -0.076921955, -0.12130778, 0.10492133, -0.05754867, 0.092430316, 0.06199744, 0.08421166, -0.02469003, 0.070685014, 0.07697513, -0.009480791, -0.045597102, -0.12633517, 0.04094462, 0.090130776, -0.119233064, -0.028098144, -0.040043958, 0.025325881, -0.13267426, 0.18889047, -0.017185181, 0.07380207, -0.030190373, 0.10649853, 0.031640552, 0.039044887, -0.14159125, 0.15567413, 0.039864823, -0.11091658, -0.19731821, -0.1295198, -0.2267994, 0.1386253, -0.06621516, -0.11385139, -0.14901495, 0.12867314, -0.06819211, 0.05773237, -0.06602697, 0.033140995, 0.02757377 ,
-0.09363767, -0.02345438, 0.030741183, 0.1190529, 0.021457221, 0.026103823, 0.020585097, -0.17577401, 0.12879334, -0.0811155, 0.07829662, -0.11046085, 0.0453551, 0.21069598, -0.07290649, 0.123430334, -0.0321554, -0.110318266, 0.07018326, 0.10320186, 0.14148983, 0.011355996, -0.09202931, 0.21470311, 0.06721906, 0.08769958, -0.10086865, 0.2764437, -0.21766326, -0.022595987, -0.15551406, 0.11610108, 0.023755478, 0.01193531, 0.03509451, -0.013443416, 0.16370495, -0.017477874, -0.03662002, -0.10230808, 0.11619598, 0.02578419, 0.042190142, 0.04097799, 0.22625786, -0.03017435, 0.042391792, 0.06882317, 0.10676486, 0.12038775, 0.27637038, -0.063096255, 0.0258268, -0.022787156, -0.065223165, 0.04257688, 0.06856789, -0.04941539, 0.10885761, -0.090723135, 0.15793474, -0.07032624, 0.02760653, 0.056932364 ,
-0.004048265, 0.1110771, -0.11292954, -0.09361876, 0.0547419, -0.011503637, 0.12679876, 0.032947864, 0.079628475, -0.005975573, -0.05124037, -0.06828529, -0.034901343, -0.10537403, -0.0351295, -0.11163329, -0.04351649, 0.14665468, -0.12387773, 0.03643614, 0.010268014, 0.07750584, 0.12658514, -0.1708239, -0.029746436, 0.039242364, -0.034270056, 0.13306032, 0.1334096, 0.0062490874, 0.09823619, 0.040193368, -0.11590813, 0.05965536, 0.045053422, -0.037136395, 0.16198517, 0.07534976, -0.018540356, -0.0736821, 0.14334628, -0.04413372, 0.22998294, -0.06254999, 0.009816274, 0.05511213, -0.060550205, 0.05220613, -0.02139329, -0.124269865, 0.059618797, 0.13355432, 0.013617, -0.13542412, -0.058617286, 0.026525507, -0.22283916, -0.2232768, 0.10539154, 0.015192508, 0.02779467, -0.046857234, 0.071321644, 0.22939296 ,
0.08148398, 0.003664511, -0.2860636, 0.07007079, -0.010533514, 0.051054887, -0.03276819, 0.06357164, -0.1865932, 0.004952111, -0.05342249, -0.08422567, -0.17235543, -0.0132468175, 0.10787226, -0.08496377, 0.006234385, 0.12292939, -0.0007362042, -0.12416971, 0.18013956, -0.03873633, -0.06178194, 0.0040256507, -0.09968433, 0.031810667, -0.03572107, 0.10356845, -0.09291555, 0.07477524, 0.036823377, -0.12346387, 0.09207853, -0.09428136, 0.07953971, 0.046842765, 0.251435, -0.12841137, -0.033058178, -0.049818967, -0.008122196, 0.09256596, -0.13660458, 0.02955015, 0.31703356, 0.12551577, 0.00059356727, -0.06729321, 0.4066813, -0.09719331, 0.180193, -0.04425416, -0.060762953, 0.057130933, 0.067835115, 0.027331475, -0.31400108, -0.11433052, 0.16619419, 0.096581966, -0.19510444, -0.009754251, -0.12172288, -0.012642197 ,
-0.023260044, 0.23672181, -0.028227633, -0.2305967, 0.12256585, -0.029677782, 0.27945778, -0.33061478, -0.24585529, -0.08261307, 0.04658482, -0.076940246, -0.10549289, 0.014829964, 0.20174856, -0.18351908, 0.023093551, -0.26422822, -0.19019556, -0.19324978, -0.24553423, 0.16877253, -0.17223117, -0.08445287, -0.0372496, -0.12756911, -0.4232704, 0.011247674, 0.17399979, -0.41889665, -0.1460567, -0.13541958, 0.13287896, 0.05112514, -0.07562418, 0.25765336, 0.2054309, 0.29275045, -0.18074553, -0.017293813, 0.13978225, -0.003933567, 0.31796467, 0.17050032, 0.049791325, 0.01907168, -0.07904394, -0.15608168, 0.3558354, 0.2260769, -0.056001447, -0.16364351, -0.11326677, -0.018054172, -0.015101781, 0.2996983, -0.14727472, -0.010283418, 0.27105668, 0.07860401, -0.10379047, -0.21457192, -0.33223283, 0.005074164 ,
0.26075852, -0.17698313, -0.1329769, -0.04446474, -0.11199022, -0.057625383, 0.18916036, 0.20015872, -0.022430943, 0.002752826, -0.109297626, 0.023519022, 0.27374774, 0.21169573, -0.06703356, -0.20645177, -0.024131216, -0.14447297, 0.044009645, 0.035156902, 0.04072792, -0.017274346, 0.14258271, -0.009301531, 0.039395947, -0.095922075, 0.039257858, -0.011144673, 0.31826535, 0.00073548075, -0.013978842, 0.046994913, -0.19915287, 0.04005057, -0.13415514, 0.08112565, -0.17504819, 0.21081854, -0.0067815236, 0.18627404, -0.07151972, 0.12848172, 0.0019631768, 0.13417839, -0.18140158, 0.036356185, 0.087399505, 0.13291128, -0.2027182, 0.048700817, 0.030867444, 0.0060371757, -0.10059377, -0.1894786, -0.046269797, -0.03214011, 0.1111941, 0.119453095, 0.16076206, 0.25959796, -0.14345866, -0.06704801, -0.050108932, 0.16123068 ,
-0.08266634, -0.04003205, -0.013398126, -0.096108966, 0.021533865, -0.061096825, -0.02029542, -0.05512333, -0.06441199, 0.05569748, -0.08757387, 0.11000381, -0.10475759, -0.030817527, 0.15099446, 0.09872865, -0.036295865, 0.00473916, -0.008548048, 0.00092257996, -0.014257371, -0.03034539, -0.029602187, 0.03151709, 0.00027592416, 0.012013273, 0.074678056, 0.028987205, 0.07617842, 0.04404067, -0.18969132, -0.077603705, -0.006021119, -0.0024705706, 0.06166864, -0.11527998, 0.011707558, -0.02163183, 0.03794078, -0.051422402, 0.11928773, -0.0025558036, 0.05337354, -0.14791688, -0.10832333, -0.030722372, -0.027070466, -0.01107529, 0.23277894, 0.046307817, 0.0017039971, 0.05287195, -0.08829894, 0.015799375, 0.10764178, 0.027673487, -0.12592696, -0.00838715, 0.30098367, -0.019995082, 0.018981451, 0.10665883, -0.08754874, 0.17479438 ,
0.0009861885, 0.019816322, 0.009250769, -0.012100116, 0.027655542, 0.00564023, -0.0068054986, -0.006409396, -0.025677826, 0.004453194, -0.03946673, 0.012386141, -0.010515156, -0.042587698, 0.030758452, -0.030604035, 0.0057668705, 0.012997658, -0.015689462, -0.02339556, 0.0055477503, -0.010033992, -0.0076213423, 0.0039607775, 0.046752855, -0.020933466, 0.024440331, -0.016759725, 0.022575662, 0.01758764, -0.020185659, 0.00927108, -0.009091669, 0.01418307, 0.02836779, -0.034736495, -0.017914977, -0.023882216, -0.03004506, -0.017791009, -0.009348871, 0.010512644, 0.015147396, 0.012858874, -0.0058629066, -0.0014497146, -0.012161011, 0.0042236955, -0.0060729906, 0.0017253804, 0.02800719, -0.09262188, 0.0053835753, 0.028958023, 0.020897426, -0.033330265, -0.0062879934, -0.017258065, -0.022867857, -0.010856759, 0.043281112, 0.024772037, 0.010067934, 0.0090503255 ,
0.028350234, 0.03084934, -0.1304318, -0.04582646, 0.040877543, -0.0853621, -0.102908604, 0.203888, -0.23937756, 0.08113672, -0.077815235, 0.0031608425, -0.009016681, -0.20179662, -0.079975784, -0.29651043, -0.06593949, 0.23638737, -0.17877212, 0.017740082, -0.12820883, 0.0051188217, 0.09219341, -0.056043867, -0.023641722, 0.024995944, -0.06916904, -0.18029045, -0.0472003, -0.09068448, 0.07876538, 0.089238964, -0.047738675, 0.19763212, 0.025252461, -0.024819616, 0.11749918, -0.10522385, 0.28944406, -0.024980137, 0.09150279, 0.058568824, 0.22625731, 0.08863551, -0.028109012, 0.13040489, -0.21633902, 0.14582267, -0.046305668, 0.03875173, 0.12778148, 0.061248545, 0.022074435, -0.10206127, 0.014693845, 0.018775458, -0.02095745, 0.060073923, 0.10504645, -0.0309241, -0.04580433, 0.17369327, 0.037454437, 0.17267835 ,
0.0001220288, -0.038193207, 0.038731955, -0.068073645, -0.036449816, 0.009896652, -0.038862076, -0.12488339, -0.021718817, 0.018028744, -0.02036195, -0.0917548, -0.18691997, -0.08118453, 0.037777014, 0.028623132, -0.029657986, -0.14721566, -0.18863901, 0.008091108, -0.0045396467, 0.17094739, -0.0109671485, -0.015993074, -0.038051035, 0.1695256, 0.10628446, -0.046519086, 0.019893851, -0.04671625, 0.120327726, -0.13525996, 0.015358456, 0.059304032, 0.0040045884, -0.06729745, -0.0020525989, 0.09144358, -0.025694165, 0.042847447, 0.04113611, -0.030371401, 0.15919803, -0.042420264, 0.14984576, -0.06064924, 0.09436157, -0.025062922, 0.15664078, -0.1821385, -0.0042149113, -0.0843485, 0.031518996, -0.066516675, -0.10689572, 0.1436993, -0.13630745, -0.14618833, -0.05266437, 0.046514533, -0.001132211, 0.028049152, 0.09590173, 0.034551457 ,
0.039620496, 0.160691, 0.023407405, -0.03870623, -0.16484419, -0.072269686, 0.08106772, -0.1938241, -0.1123992, -0.038627826, 0.0091677755, 0.09145492, 0.18121283, -0.19336157, -0.14424205, 0.15547787, 0.113182575, -0.163394, -0.028572116, -0.05262394, -0.1582089, 0.09095216, -0.21149307, -0.016332317, -0.18604594, 0.131847, -0.035572108, 0.094802916, -0.062136516, -0.0581831, -0.15681842, -0.050907586, 0.10158501, -0.026033133, 0.06609559, -0.2977014, 0.04611921, -0.21797241, 0.12753998, -0.06644389, -0.020089155, 0.07033726, -0.1615054, 0.09860216, 0.19155623, -0.2034045, -0.21248081, 0.117696896, 0.04149197, 0.056123026, -0.0702763, -0.23541033, 0.102948174, -0.034925416, 0.099612646, 0.12492852, 0.23097804, -0.08375582, 0.26743364, 0.15528864, -0.056837264, -0.13143656, -0.37472865, 0.01746602 ,
0.13479213, 0.05369435, -0.044842437, 0.01795969, -0.010424271, -0.06467497, 0.040606283, -0.13206355, -0.24832061, 0.023333123, -0.061770044, -0.114671, -0.1759557, -0.09932154, 0.015107423, 0.0706847, 0.05852958, 0.09929053, 0.03882685, 0.10900969, 0.032225396, 0.22376595, 0.034868523, 0.018961817, 0.07312317, 0.10281468, -0.06958606, 0.02535756, 0.014061481, -0.11566945, 0.16446994, -0.09472306, -0.0356162, 0.1867983, -0.048652574, -0.07486296, -0.06711729, 0.02211204, -0.016612211, -0.101762496, 0.13569808, 0.19650249, -0.063811764, -0.038928524, 0.0565912, 0.07267811, -0.016251184, -0.04085382, 0.4803093, 0.03180111, 0.15620351, -0.10640606, 0.14231099, -0.0070729796, 0.1051379, -0.056027036, 0.001403515, -0.1741225, 0.0923897, 0.120163456, -0.12057588, 0.14138903, -0.008464694, -0.026701394 ,
0.03609848, 0.007689274, -0.05705385, 0.07548367, 0.04806791, 0.038789596, -0.031241393, 0.037844807, 0.003026286, -0.025883634, -0.076254845, -0.051789682, 0.0011400948, -0.043768056, 0.11018133, 0.13716856, -0.04011424, 0.050686438, 0.06966416, -0.02966017, -0.062475536, 0.05698956, 0.041381918, 0.031088788, 0.07603074, 0.04950783, -0.06611457, -0.013506504, -0.013326959, -0.07627382, -0.14166655, -0.041840285, 0.011680721, 0.054758996, -0.032146264, -0.0664088, 0.07472572, 0.0049375445, -0.037582565, -0.018579196, 0.008721585, 0.043949354, -0.04331454, -0.0362943, 0.19256712, -0.029009536, 0.020184504, 0.0238856, -0.034785174, 0.090076834, -0.07613521, -0.14542176, -0.105562285, -0.07293892, 0.15676314, -0.24330594, -0.09816693, -0.021293849, 0.16986607, 0.015953198, -0.07961307, -0.0011479293, 0.09796568, 0.01861884 ,
-0.04912419, 0.11229158, -0.06348966, 0.052890785, 0.08742419, -0.04733782, 0.09919038, -0.09187548, -0.081539795, -0.042233646, -0.10026356, -0.008905912, -0.05008086, 0.025518136, 0.05892335, -0.10637452, 0.020735936, 0.13581528, -0.0048053805, -0.10587041, -0.11223843, 0.011377991, 0.00045124075, -0.09319381, -0.06718818, 0.06526283, -0.12870795, -0.040658817, 0.16070789, -0.082865484, 0.12028268, -0.17094006, -0.016665494, 0.21889995, -0.0016690481, -0.06885497, 0.077611834, 0.12852278, -0.00090510293, -0.04743986, -0.27753314, -0.024322007, -0.062410895, -0.02050234, 0.024375733, 0.0043726712, -0.124713935, 0.0029619774, 0.16166866, -0.18215016, 0.082900696, -0.17534119, -0.0048361053, 0.038538545, -0.16125646, 0.0990152, -0.07872222, -0.05999966, 0.18213238, 0.024661675, -0.12070698, 0.15301362, -0.16921532, 0.15325676 ,
-0.06276938, -0.0769981, -0.001996603, -0.10398186, -0.051943462, -0.017072132, -0.009865229, -0.002795438, -0.027028663, -0.028351333, -0.08970729, -0.1197585, 0.039535258, 0.055200946, 0.28092092, 0.08827646, 0.003435515, -0.05845892, 0.028998127, -0.12293915, 0.012508107, -0.022904906, -0.18815207, 0.025007397, 0.122458614, 0.04440125, -0.011472624, 0.17324713, 0.045930315, -0.12686518, -0.1363817, 0.10172526, 0.0038514126, 0.094493285, -0.05666413, -0.075940505, 0.058793075, 0.02876004, -0.037340958, 0.058977813, 0.22753273, 0.0020143325, 0.048319, 0.036700398, -0.086760834, -0.039540485, -0.0050455797, 0.026587846, 0.036631912, 0.22693963, -0.09266348, -0.23236875, 0.030171454, -0.07283624, 0.049027216, -0.003462903, -0.16743828, -0.21937835, -0.04619827, 0.086975425, -0.118739046, -0.00746941, -0.15579534, 0.024498882 ,
-0.08678069, 0.0702462, -0.12739779, 0.04831425, -0.028413082, -0.0877612, -0.07197891, -0.061808456, -0.069162965, -0.027189013, -0.043753106, -0.06487289, 0.09617338, 0.032884106, 0.05933494, -0.084952794, -0.038345512, -0.020630578, -0.032472067, -0.13786049, -0.034698617, 0.04652191, 0.041863345, 0.1319578, 0.022644386, 0.028866071, 0.04863062, 0.06329501, 0.082998015, -0.102102846, 0.0579268, -0.03599621, 0.027154163, 0.053590212, 0.022590963, -0.08426997, 0.09564173, 0.10388912, -0.016070774, -0.13401079, 0.24135773, 0.10037366, -0.013552502, 0.038591836, -0.052504387, 0.030361442, -0.05187447, 0.030786378, -0.12440162, -0.0036514145, 0.07852557, 0.16618052, -0.094772294, 0.14406082, -0.023808815, 0.013130155, -0.1484142, -0.10308001, -0.05215331, -0.055822674, -0.033816878, -0.013313621, -0.02084921, -0.049820464 ,
-0.025035698, 0.05641284, 0.021530237, -0.005801633, 0.029902708, -0.007017541, 0.030723304, 0.001062241, -0.08437186, -0.013389612, -0.065088466, -0.16893178, 0.10047578, -0.048802726, 0.11046286, -0.054818172, -0.026500959, 0.03393207, -0.027670015, -0.20486806, -0.06778986, 0.038230006, 0.037687328, -0.15554737, 0.0033333593, 0.006769449, -0.023606298, 0.020359075, -0.015829202, -0.12376331, -0.09566388, 0.1229774, 0.0063072657, 0.21605925, -0.068099886, 0.08618178, 0.1464639, 0.08248232, -0.037390683, -0.058521334, 0.036130674, 0.011429318, -0.0007357683, 0.06776045, 0.038207848, 0.049506143, -0.021700053, 0.004965118, 0.12462993, 0.012112709, -0.014620555, -0.21380876, -0.08300913, -0.05109216, 0.08475074, -0.0032632079, -0.19733085, -0.13128763, 0.16102651, 0.028476223, -0.023533301, -0.031632017, -0.08724408, 0.0005659477 ,
0.16898228, 0.046777777, -0.110950105, -0.0075238436, 0.06874037, 0.053798307, 0.013948542, -0.00715183, -0.053410318, 0.058175556, -0.018038196, -0.05361636, -0.084259026, 0.12269159, 0.23189704, 0.13708407, 0.058924653, 0.035610687, 0.018533908, -0.16308798, 0.1606104, 0.08248593, -0.04953278, 0.02206295, -0.058259618, -0.025940875, 0.08858477, -0.11559168, 0.18520342, 0.035493128, -0.08246445, -0.040476233, 0.12029532, 0.1038242, -0.0066313394, -0.071879864, 0.13398364, -0.18175694, 0.07404457, 0.008664733, 0.009865175, -0.019621318, -0.07870943, 0.12467101, -0.1209409, 0.059194684, -0.009499862, -0.0040221764, 0.2612689, 0.046049006, 0.039293706, -0.2177568, 0.09940773, -0.17012829, -0.06552638, 0.06582867, 0.18758947, -0.03467152, 0.07074287, -0.020890871, 0.0028378607, -0.07882082, 0.045189098, -0.070059106 ,
-0.12511939, -0.13156015, -0.045915894, 0.24269323, -0.3088456, 0.11213455, 0.020112878, 0.041139074, 0.064505525, 0.1637913, 0.11289512, -0.12913935, 0.07727276, -0.26399937, 0.12151901, -0.013092728, 0.02337724, 0.004905665, -0.08031635, 0.0025898465, -0.14887513, 0.12142298, -0.047603466, -0.11044345, 0.09003415, 0.18441151, -0.21920726, 0.12156407, 0.033458706, 0.016663887, -0.010096261, -0.13489465, 0.034212913, -0.20284903, -0.115520924, -0.08298683, 0.030867469, 0.06990367, -0.1658517, -0.023848817, 0.027152041, 0.10082575, 0.013689641, -0.03427669, 0.011161831, -0.08958155, 0.10128112, 0.1565997, -0.14455144, 0.008286779, 0.09057276, -0.16983892, -0.13517608, -0.17041686, 0.038671784, 0.1499816, -0.124965064, -0.07624856, 0.10077638, 0.057248052, 0.024993522, -0.15479255, -0.12206791, -0.001237006 ,
-0.09160174, 0.2169749, -0.062108155, 0.2740489, 0.003988821, -0.028464656, -0.06464959, 0.021188317, 0.038161945, 0.010524017, 0.058445297, -0.16823404, 0.18170242, 0.12008637, 0.006023687, 0.13556388, 0.050043184, 0.12255154, -0.20243907, -0.08805231, 0.002514825, 0.07573254, 0.12729186, 0.23129964, 0.06340323, -0.06804553, -0.056567326, 0.036558013, 0.16095014, 0.06823593, 0.11613493, -0.012907743, -0.042976934, 0.064030126, -0.12769367, 0.11058795, -0.21655856, 0.21249114, -0.07833486, 0.18818744, -0.03206058, 0.087314, -0.014170118, 0.018091975, 0.056770395, -0.17262042, -0.3292291, 0.15595923, -0.13592373, -0.0065052505, 0.0032959871, -0.24579772, 0.041355878, -0.34719703, -0.07733511, -0.105407484, -0.019859055, -0.17709404, 0.08093911, 0.02531875, -0.034912013, -0.12020465, 0.10294002, 0.002133227 ,
-0.087801725, -0.033995684, 0.048915207, -0.03710914, -0.052953053, -0.05877088, -0.039596543, -0.078094214, -0.14760707, -0.055707186, -0.05975635, -0.10329097, -0.10867497, 0.024086349, 0.157285, -0.061374858, 0.054460473, 0.24555165, 0.0027746481, -0.07095864, 0.0003265973, 0.002629763, -0.054916862, 0.065394886, 0.054108534, -0.063948356, -0.031682827, -0.010148442, 0.08038514, 0.053807333, -0.03905795, -0.07857623, 0.115985975, 0.10536927, -0.009671887, -0.1180091, 0.023044573, -0.043043498, 0.078357175, 0.0013159319, 0.09353716, -0.06353154, -0.010879398, -0.018510733, 0.053739958, 0.069993086, 0.052513782, -0.015465356, 0.0819974, 0.040609367, 0.079860784, 0.060493425, -0.069327004, -0.13202299, 0.0046078116, 0.06347305, -0.070495725, -0.053078827, 0.1784066, 0.08294213, 0.05165646, -0.0213015, -0.14008126, 0.15319307 ,
0.17234649, -0.03952321, -0.12612405, -0.20132503, 0.07662804, -0.09019453, -0.06795473, -0.27655235, -0.1959463, 0.106229655, -0.15435421, -0.26080328, 0.2204709, -0.10188005, 0.06756523, -0.097220786, 0.18848199, 0.00029055975, -0.27047655, -0.07785553, -0.14606492, 0.0872277, 0.021624455, -0.11744509, -0.315514, -0.11700333, 0.018146684, 0.0646069, 0.22435531, 0.091079175, -0.08587694, -0.024372926, 0.1735967, 0.06444322, 0.21728683, -0.2326894, 0.08709213, -0.2058951, 0.011387758, -0.017704364, -0.030067284, -0.11869106, -0.16216353, -0.061602004, -0.19829328, 0.34129086, -0.3245327, 0.14652638, 0.32126307, 0.24865988, -0.04116262, -0.17988205, -0.1101508, -0.15897404, 0.09455734, 0.030383447, -0.2083706, -0.16007876, 0.26167116, -0.24245809, -0.23738351, 0.14028747, -0.45849693, 0.00012043814 ,
0.009641358, -0.05053715, -0.049490098, 0.20211266, -0.09761587, 0.14225079, -0.24685296, 0.056729384, -0.26190394, 0.051451366, -0.11920039, 0.0063992864, -0.07310442, 0.19159167, -0.15871663, -0.06570281, 0.18851778, -0.033931974, -0.20963675, 0.08168987, -0.13787512, -0.07153624, 0.14451064, 0.025456363, 0.054951288, 0.055744786, -0.057626445, -0.033037275, -0.021305835, -0.107062876, 0.0013204304, -0.1864561, -0.048396014, 0.2139065, 0.010821035, 0.29613337, 0.041342326, -0.051648673, 0.067617215, -0.06734271, 0.23112717, -0.1453359, 0.11479252, 0.18465096, 0.007883672, -0.097388275, -0.2481511, 0.13954067, 0.084192626, 0.36156264, -0.016571369, -0.07087539, 0.014165575, 0.021792192, -0.037196882, 0.20431267, -0.21254139, 0.16737151, 0.1703169, 0.07534693, -0.076955706, -0.10917819, 0.009727549, -0.09683952 ,
